svm_type c_svc
kernel_type linear
nr_class 2
total_sv 6536
rho 0.7053961800869205
label 1 0
nr_sv 1973 4563
SV
0.5522978505400069 1:5984.0 2:1708.0 3:14137.0 4:1898.0 5:5986.0 
1.0 1:5984.0 2:1708.0 3:14137.0 4:1898.0 5:5908.0 6:4424.0 7:12079.0 8:12187.0 9:14212.0 10:1898.0 11:1649.0 12:8762.0 13:12765.0 14:7524.0 15:5986.0 
1.0 1:5984.0 2:1949.0 3:14050.0 4:1949.0 5:5986.0 
1.0 1:5984.0 2:1949.0 3:5908.0 4:4046.0 5:14050.0 6:10643.0 7:10715.0 8:9922.0 9:1825.0 10:1708.0 11:5986.0 
1.0 1:5984.0 2:1949.0 3:5908.0 4:4046.0 5:14050.0 6:4046.0 7:24.0 8:1949.0 9:5986.0 
1.0 1:5984.0 2:1949.0 3:5908.0 4:13529.0 5:5986.0 
1.0 1:5984.0 2:1949.0 3:24.0 4:4046.0 5:14050.0 6:10643.0 7:10715.0 8:9922.0 9:1825.0 10:1708.0 11:5986.0 
1.0 1:5984.0 2:4046.0 3:14050.0 4:10643.0 5:10715.0 6:9922.0 7:1825.0 8:1708.0 9:5986.0 
1.0 1:5984.0 2:13529.0 3:5908.0 4:4046.0 5:14050.0 6:4046.0 7:24.0 8:1949.0 9:5986.0 
1.0 1:5984.0 2:4046.0 3:14050.0 4:4046.0 5:24.0 6:1949.0 7:5986.0 
1.0 1:5984.0 2:6355.0 3:12701.0 4:7034.0 5:5986.0 
1.0 1:5984.0 2:1949.0 3:5908.0 4:1708.0 5:13179.0 6:8505.0 7:12701.0 8:7034.0 9:5986.0 
1.0 1:5984.0 2:6355.0 3:12701.0 4:7034.0 5:5986.0 
1.0 1:5984.0 2:10643.0 3:4026.0 4:1898.0 5:5986.0 
1.0 1:5984.0 2:6355.0 3:9095.0 4:8025.0 5:5986.0 
1.0 1:5984.0 2:7524.0 3:14215.0 4:1708.0 5:2180.0 6:3977.0 7:8294.0 8:8762.0 9:5986.0 
1.0 1:5984.0 2:8748.0 3:5908.0 4:6355.0 5:3662.0 6:12187.0 7:14215.0 8:7524.0 9:5986.0 
1.0 1:5984.0 2:6355.0 3:3662.0 4:12187.0 5:14215.0 6:7524.0 7:5986.0 
1.0 1:5984.0 2:1949.0 3:3982.0 4:8762.0 5:1737.0 6:4046.0 7:5899.0 8:7034.0 9:5986.0 
1.0 1:5984.0 2:8762.0 3:1737.0 4:4046.0 5:5899.0 6:7034.0 7:5986.0 
0.8997526961907775 1:5984.0 2:10643.0 3:10926.0 4:8748.0 5:7488.0 6:1949.0 7:5986.0 
1.0 1:5984.0 2:10643.0 3:10926.0 4:313.0 5:8650.0 6:5302.0 7:2135.0 8:6593.0 9:774.0 10:1949.0 11:5986.0 
0.83678987602122 1:5984.0 2:10643.0 3:10926.0 4:8748.0 5:774.0 6:1949.0 7:5986.0 
0.5352016514780956 1:5984.0 2:10643.0 3:10926.0 4:313.0 5:8650.0 6:5302.0 7:2135.0 8:6593.0 9:5986.0 
1.0 1:5984.0 2:10643.0 3:10926.0 4:313.0 5:8650.0 6:5302.0 7:2135.0 8:6593.0 9:5986.0 
1.0 1:5984.0 2:6355.0 3:6908.0 4:8748.0 5:717.0 6:1949.0 7:5986.0 
1.0 1:5984.0 2:6355.0 3:4964.0 4:8025.0 5:11211.0 6:7034.0 7:5986.0 
1.0 1:5984.0 2:4046.0 3:741.0 4:4046.0 5:5986.0 
1.0 1:5984.0 2:8762.0 3:12849.0 4:8762.0 5:5986.0 
1.0 1:5984.0 2:4046.0 3:741.0 4:7524.0 5:5986.0 
0.4616230757317071 1:5984.0 2:1949.0 3:24.0 4:1708.0 5:11211.0 6:8025.0 7:7140.0 8:1708.0 9:9421.0 10:12586.0 11:719.0 12:1949.0 13:5986.0 
0.14402099008081856 1:5984.0 2:1949.0 3:24.0 4:1708.0 5:11211.0 6:8025.0 7:7140.0 8:1708.0 9:9421.0 10:1898.0 11:12084.0 12:7524.0 13:5986.0 
1.0 1:5984.0 2:1949.0 3:24.0 4:1708.0 5:11211.0 6:8025.0 7:7140.0 8:1708.0 9:9421.0 10:12586.0 11:719.0 12:1949.0 13:5986.0 
0.9192337106617757 1:5984.0 2:1949.0 3:24.0 4:1708.0 5:11211.0 6:7034.0 7:24.0 8:7524.0 9:5986.0 
0.49841396769349766 1:5984.0 2:1949.0 3:24.0 4:1708.0 5:11211.0 6:7034.0 7:24.0 8:1949.0 9:5986.0 
1.0 1:5984.0 2:1949.0 3:24.0 4:1708.0 5:11211.0 6:8025.0 7:7140.0 8:1708.0 9:9421.0 10:1898.0 11:12084.0 12:7524.0 13:5986.0 
0.9981122124626564 1:5984.0 2:1949.0 3:24.0 4:1708.0 5:11211.0 6:8025.0 7:7140.0 8:1708.0 9:9421.0 10:12586.0 11:719.0 12:1949.0 13:5986.0 
0.9821405756010981 1:5984.0 2:1949.0 3:24.0 4:1708.0 5:11211.0 6:8025.0 7:7140.0 8:1708.0 9:9421.0 10:1898.0 11:12084.0 12:7524.0 13:5986.0 
1.0 1:5984.0 2:7524.0 3:719.0 4:1949.0 5:5986.0 
0.8551924495757093 1:5984.0 2:7524.0 3:12084.0 4:1898.0 5:9421.0 6:12586.0 7:719.0 8:1949.0 9:5986.0 
1.0 1:5984.0 2:7524.0 3:719.0 4:1949.0 5:5986.0 
0.9505942924614676 1:5984.0 2:7524.0 3:12084.0 4:1898.0 5:9421.0 6:12586.0 7:719.0 8:1949.0 9:5986.0 
0.11714660186162286 1:5984.0 2:1949.0 3:24.0 4:1708.0 5:11211.0 6:7034.0 7:5986.0 
0.2112230260844005 1:5984.0 2:1949.0 3:24.0 4:1708.0 5:11211.0 6:7034.0 7:3092.0 8:6593.0 9:717.0 10:1949.0 11:5986.0 
0.9974845803931203 1:5984.0 2:1949.0 3:24.0 4:1708.0 5:11211.0 6:7034.0 7:5986.0 
1.0 1:5984.0 2:1949.0 3:24.0 4:1708.0 5:11211.0 6:7034.0 7:3092.0 8:6593.0 9:717.0 10:7524.0 11:5986.0 
0.9681373288182106 1:5984.0 2:1949.0 3:24.0 4:1708.0 5:11211.0 6:7034.0 7:3092.0 8:6593.0 9:717.0 10:1949.0 11:5986.0 
0.6951997181001957 1:5984.0 2:1949.0 3:6883.0 4:6355.0 5:14324.0 6:8505.0 7:8330.0 8:1898.0 9:13805.0 10:7524.0 11:5986.0 
0.981934896586283 1:5984.0 2:1949.0 3:6883.0 4:6355.0 5:14324.0 6:8505.0 7:8330.0 8:1898.0 9:13805.0 10:7524.0 11:5986.0 
0.5927290270742009 1:5984.0 2:6355.0 3:6847.0 4:8025.0 5:2763.0 6:1708.0 7:13979.0 8:1898.0 9:5986.0 
0.9950359750630317 1:5984.0 2:6355.0 3:6847.0 4:8025.0 5:2763.0 6:1708.0 7:13979.0 8:1898.0 9:5986.0 
0.6613201054465743 1:5984.0 2:1949.0 3:24.0 4:8762.0 5:5469.0 6:4046.0 7:12545.0 8:1708.0 9:719.0 10:1949.0 11:5986.0 
0.9792896890087204 1:5984.0 2:1949.0 3:24.0 4:8762.0 5:5469.0 6:4046.0 7:12545.0 8:1708.0 9:719.0 10:1949.0 11:5986.0 
1.0 1:5984.0 2:8762.0 3:5908.0 4:8762.0 5:9324.0 6:11436.0 7:4358.0 8:3998.0 9:5986.0 
1.0 1:5984.0 2:8762.0 3:1737.0 4:6355.0 5:13165.0 6:12187.0 7:5986.0 
1.0 1:5984.0 2:8762.0 3:1737.0 4:1708.0 5:4358.0 6:3998.0 7:5986.0 
1.0 1:5984.0 2:8762.0 3:2930.0 4:12187.0 5:2764.0 6:3998.0 7:5986.0 
0.07207265958156067 1:5984.0 2:8762.0 3:1737.0 4:6355.0 5:776.0 6:3977.0 7:24.0 8:1949.0 9:5986.0 
1.0 1:5984.0 2:8762.0 3:1737.0 4:6355.0 5:776.0 6:3977.0 7:953.0 8:8762.0 9:5986.0 
1.0 1:5984.0 2:8762.0 3:953.0 4:3977.0 5:776.0 6:3977.0 7:24.0 8:1949.0 9:5986.0 
1.0 1:5984.0 2:8762.0 3:1737.0 4:6355.0 5:776.0 6:3977.0 7:24.0 8:1949.0 9:5986.0 
1.0 1:5984.0 2:8762.0 3:1235.0 4:13529.0 5:5908.0 6:4046.0 7:12765.0 8:1949.0 9:5986.0 
1.0 1:5984.0 2:1708.0 3:4682.0 4:8671.0 5:12765.0 6:1949.0 7:5986.0 
1.0 1:5984.0 2:3977.0 3:9058.0 4:7524.0 5:12765.0 6:1949.0 7:5986.0 
1.0 1:5984.0 2:1708.0 3:4682.0 4:8671.0 5:12765.0 6:7524.0 7:9058.0 8:3977.0 9:5986.0 
1.0 1:5984.0 2:1898.0 3:5908.0 4:1898.0 5:5986.0 
1.0 1:5984.0 2:8762.0 3:5244.0 4:12187.0 5:963.0 6:12187.0 7:11109.0 8:1898.0 9:5908.0 10:1949.0 11:5986.0 
0.9518929569323252 1:5984.0 2:10643.0 3:5060.0 4:3977.0 5:5986.0 
1.0 1:5984.0 2:7524.0 3:24.0 4:8762.0 5:2763.0 6:1708.0 7:9570.0 8:8762.0 9:12765.0 10:7524.0 11:5986.0 
0.7762177781387865 1:5984.0 2:6787.0 3:13710.0 4:7034.0 5:3949.0 6:8671.0 7:5908.0 8:7524.0 9:5986.0 
0.9726427397616519 1:5984.0 2:6787.0 3:13710.0 4:7034.0 5:3949.0 6:8671.0 7:5908.0 8:7524.0 9:5986.0 
1.0 1:5984.0 2:6355.0 3:8610.0 4:3998.0 5:5908.0 6:7524.0 7:5986.0 
1.0 1:5984.0 2:6355.0 3:8610.0 4:3998.0 5:5908.0 6:4046.0 7:11712.0 8:7524.0 9:5986.0 
1.0 1:5984.0 2:7524.0 3:5908.0 4:4046.0 5:11712.0 6:8671.0 7:4401.0 8:4424.0 9:3873.0 10:8505.0 11:9550.0 12:1708.0 13:5908.0 14:1949.0 15:5986.0 
1.0 1:5984.0 2:7524.0 3:5908.0 4:4046.0 5:11712.0 6:8671.0 7:4401.0 8:4424.0 9:3873.0 10:8505.0 11:9550.0 12:1708.0 13:5986.0 
1.0 1:5984.0 2:7524.0 3:5908.0 4:4046.0 5:11712.0 6:7524.0 7:5986.0 
1.0 1:5984.0 2:7524.0 3:5908.0 4:4046.0 5:11712.0 6:8671.0 7:4401.0 8:4424.0 9:3873.0 10:8505.0 11:9550.0 12:3299.0 13:467.0 14:8671.0 15:1213.0 16:8762.0 17:5986.0 
1.0 1:5984.0 2:7524.0 3:5908.0 4:4046.0 5:11712.0 6:8671.0 7:4401.0 8:4424.0 9:3873.0 10:8505.0 11:9550.0 12:3299.0 13:467.0 14:3977.0 15:5986.0 
1.0 1:5984.0 2:12920.0 3:5908.0 4:6355.0 5:8610.0 6:3998.0 7:5908.0 8:4046.0 9:11712.0 10:7524.0 11:5986.0 
1.0 1:5984.0 2:1949.0 3:5908.0 4:1708.0 5:9550.0 6:3299.0 7:467.0 8:3977.0 9:5986.0 
1.0 1:5984.0 2:7524.0 3:11712.0 4:8671.0 5:4401.0 6:4424.0 7:3873.0 8:8505.0 9:9550.0 10:1708.0 11:5908.0 12:4046.0 13:12765.0 14:1949.0 15:5986.0 
1.0 1:5984.0 2:1949.0 3:12765.0 4:4046.0 5:5908.0 6:1708.0 7:9550.0 8:3299.0 9:467.0 10:3977.0 11:5986.0 
1.0 1:5984.0 2:7524.0 3:11712.0 4:8671.0 5:4401.0 6:4424.0 7:3873.0 8:8505.0 9:9550.0 10:1708.0 11:5986.0 
1.0 1:5984.0 2:1708.0 3:9550.0 4:3299.0 5:467.0 6:3977.0 7:5986.0 
1.0 1:5984.0 2:7524.0 3:11712.0 4:8671.0 5:4401.0 6:4424.0 7:3873.0 8:8505.0 9:9550.0 10:3299.0 11:467.0 12:8671.0 13:1213.0 14:8762.0 15:5986.0 
1.0 1:5984.0 2:7524.0 3:11712.0 4:8671.0 5:4401.0 6:4424.0 7:3873.0 8:8505.0 9:9550.0 10:3299.0 11:467.0 12:3977.0 13:5986.0 
1.0 1:5984.0 2:3977.0 3:467.0 4:8671.0 5:1213.0 6:8762.0 7:5986.0 
0.8624410972666794 1:5984.0 2:1708.0 3:549.0 4:1898.0 5:12079.0 6:7524.0 7:5986.0 
0.6998287356601931 1:5984.0 2:1708.0 3:10906.0 4:3397.0 5:5986.0 
1.0 1:5984.0 2:1708.0 3:10906.0 4:3397.0 5:5908.0 6:8748.0 7:8620.0 8:7524.0 9:5986.0 
0.4389558239007405 1:5984.0 2:6787.0 3:1649.0 4:6787.0 5:5986.0 
1.0 1:5984.0 2:8762.0 3:728.0 4:13529.0 5:13521.0 6:8762.0 7:5986.0 
1.0 1:5984.0 2:4015.0 3:12414.0 4:3977.0 5:24.0 6:1949.0 7:5986.0 
1.0 1:5984.0 2:8025.0 3:6325.0 4:4424.0 5:1293.0 6:6355.0 7:12414.0 8:3977.0 9:24.0 10:1949.0 11:5986.0 
1.0 1:5984.0 2:8025.0 3:6325.0 4:4424.0 5:1293.0 6:6355.0 7:12414.0 8:3977.0 9:24.0 10:7524.0 11:5986.0 
1.0 1:5984.0 2:7524.0 3:4374.0 4:8762.0 5:5908.0 6:7524.0 7:5986.0 
0.9847093284848828 1:5984.0 2:1708.0 3:4752.0 4:4046.0 5:6325.0 6:8748.0 7:5986.0 
1.0 1:5984.0 2:1708.0 3:4752.0 4:4046.0 5:5864.0 6:1898.0 7:1307.0 8:7524.0 9:5986.0 
1.0 1:5984.0 2:1708.0 3:4752.0 4:1708.0 5:9952.0 6:1898.0 7:1307.0 8:7524.0 9:5986.0 
0.9490393660925354 1:5984.0 2:1708.0 3:4752.0 4:6355.0 5:6325.0 6:8748.0 7:5986.0 
1.0 1:5984.0 2:7524.0 3:2763.0 4:7524.0 5:1825.0 6:8748.0 7:5986.0 
1.0 1:5984.0 2:7524.0 3:2763.0 4:8671.0 5:4131.0 6:1708.0 7:9324.0 8:8762.0 9:5908.0 10:8748.0 11:5986.0 
0.48572228027655795 1:5984.0 2:7524.0 3:2763.0 4:8671.0 5:4131.0 6:1708.0 7:9324.0 8:8762.0 9:5986.0 
1.0 1:5984.0 2:7524.0 3:2763.0 4:8671.0 5:4131.0 6:1708.0 7:9324.0 8:8762.0 9:5986.0 
1.0 1:5984.0 2:7524.0 3:14050.0 4:3977.0 5:397.0 6:4046.0 7:12787.0 8:7524.0 9:5986.0 
1.0 1:5984.0 2:1949.0 3:1312.0 4:8762.0 5:10071.0 6:4424.0 7:5986.0 
1.0 1:5984.0 2:7034.0 3:1312.0 4:8756.0 5:12070.0 6:1949.0 7:5986.0 
0.6686565710166109 1:5984.0 2:1949.0 3:9334.0 4:1898.0 5:12235.0 6:3647.0 7:5695.0 8:1898.0 9:1307.0 10:8762.0 11:5986.0 
0.6848052879704977 1:5984.0 2:8762.0 3:10071.0 4:1708.0 5:5065.0 6:8505.0 7:12235.0 8:3647.0 9:5695.0 10:1898.0 11:1307.0 12:8762.0 13:5986.0 
0.9774383112646947 1:5984.0 2:1949.0 3:9334.0 4:1898.0 5:12235.0 6:3647.0 7:5695.0 8:1898.0 9:1307.0 10:8762.0 11:5986.0 
1.0 1:5984.0 2:8762.0 3:10071.0 4:1708.0 5:5065.0 6:8505.0 7:12235.0 8:1898.0 9:9334.0 10:1949.0 11:5986.0 
0.9710509882935885 1:5984.0 2:8762.0 3:10071.0 4:1708.0 5:5065.0 6:8505.0 7:12235.0 8:3647.0 9:5695.0 10:1898.0 11:1307.0 12:8762.0 13:5986.0 
1.0 1:5984.0 2:8762.0 3:9961.0 4:8762.0 5:10071.0 6:8756.0 7:14108.0 8:1949.0 9:5986.0 
1.0 1:5984.0 2:10643.0 3:9102.0 4:1898.0 5:468.0 6:8762.0 7:13410.0 8:4424.0 9:1192.0 10:12187.0 11:5986.0 
1.0 1:5984.0 2:10643.0 3:9102.0 4:1898.0 5:5908.0 6:8762.0 7:12084.0 8:1949.0 9:5986.0 
0.8135427347607553 1:5984.0 2:10643.0 3:9102.0 4:1898.0 5:8926.0 6:8762.0 7:14108.0 8:1949.0 9:5986.0 
0.8127017233318922 1:5984.0 2:10643.0 3:9102.0 4:1898.0 5:9434.0 6:8762.0 7:14108.0 8:1949.0 9:5986.0 
1.0 1:5984.0 2:9922.0 3:9844.0 4:1708.0 5:468.0 6:8762.0 7:13410.0 8:4424.0 9:1192.0 10:12187.0 11:5986.0 
1.0 1:5984.0 2:9922.0 3:9844.0 4:1708.0 5:5908.0 6:8762.0 7:12084.0 8:1949.0 9:5986.0 
0.8577076827483212 1:5984.0 2:9922.0 3:9844.0 4:1708.0 5:8926.0 6:8762.0 7:14108.0 8:1949.0 9:5986.0 
0.8599272694962673 1:5984.0 2:9922.0 3:9844.0 4:1708.0 5:9434.0 6:8762.0 7:14108.0 8:1949.0 9:5986.0 
1.0 1:5984.0 2:1708.0 3:14290.0 4:8748.0 5:2986.0 6:3977.0 7:5908.0 8:7524.0 9:5986.0 
0.20040052966362354 1:5984.0 2:1708.0 3:14290.0 4:3977.0 5:5986.0 
0.8165709441938346 1:5984.0 2:6355.0 3:12414.0 4:3977.0 5:5986.0 
1.0 1:5984.0 2:7524.0 3:13979.0 4:1708.0 5:5908.0 6:11797.0 7:14195.0 8:9922.0 9:12056.0 10:1898.0 11:5986.0 
1.0 1:5984.0 2:1898.0 3:12056.0 4:9922.0 5:14195.0 6:11797.0 7:5908.0 8:8748.0 9:8620.0 10:1949.0 11:5986.0 
1.0 1:5984.0 2:7524.0 3:13979.0 4:1708.0 5:5908.0 6:11797.0 7:5986.0 
1.0 1:5984.0 2:7524.0 3:13979.0 4:1708.0 5:5908.0 6:8748.0 7:8620.0 8:1949.0 9:5986.0 
1.0 1:5984.0 2:7524.0 3:13979.0 4:8748.0 5:5986.0 
1.0 1:5984.0 2:8762.0 3:9227.0 4:8762.0 5:3713.0 6:10643.0 7:5908.0 8:1898.0 9:2641.0 10:8762.0 11:5986.0 
1.0 1:5984.0 2:8762.0 3:9227.0 4:8762.0 5:3713.0 6:10643.0 7:5908.0 8:1898.0 9:2641.0 10:8762.0 11:5908.0 12:8756.0 13:14108.0 14:1949.0 15:5986.0 
0.7186083983199222 1:5984.0 2:1949.0 3:11858.0 4:1898.0 5:3339.0 6:1898.0 7:5986.0 
1.0 1:5984.0 2:1949.0 3:11858.0 4:1898.0 5:3339.0 6:1898.0 7:5908.0 8:1949.0 9:5986.0 
1.0 1:5984.0 2:1949.0 3:11858.0 4:1898.0 5:3339.0 6:1898.0 7:719.0 8:7524.0 9:5986.0 
1.0 1:5984.0 2:1949.0 3:11858.0 4:1898.0 5:3339.0 6:1898.0 7:5986.0 
1.0 1:5984.0 2:1949.0 3:11858.0 4:1898.0 5:3339.0 6:1898.0 7:5908.0 8:1949.0 9:5986.0 
1.0 1:5984.0 2:7034.0 3:3031.0 4:1898.0 5:1243.0 6:3130.0 7:4020.0 8:1898.0 9:5986.0 
1.0 1:5984.0 2:1708.0 3:1243.0 4:1898.0 5:3031.0 6:7034.0 7:5986.0 
1.0 1:5984.0 2:7524.0 3:1307.0 4:8762.0 5:13441.0 6:1949.0 7:5986.0 
1.0 1:5984.0 2:1708.0 3:14028.0 4:1898.0 5:5880.0 6:8762.0 7:8419.0 8:1949.0 9:5986.0 
1.0 1:5984.0 2:1949.0 3:10868.0 4:1949.0 5:5986.0 
0.9143524639589976 1:5984.0 2:6355.0 3:11777.0 4:8671.0 5:10446.0 6:8762.0 7:5986.0 
0.39907559249857716 1:5984.0 2:6355.0 3:11777.0 4:8671.0 5:13797.0 6:8762.0 7:2951.0 8:1949.0 9:5986.0 
1.0 1:5984.0 2:6355.0 3:11777.0 4:8671.0 5:13797.0 6:8762.0 7:2951.0 8:1949.0 9:5986.0 
1.0 1:5984.0 2:1949.0 3:24.0 4:1949.0 5:5986.0 
1.0 1:5984.0 2:1949.0 3:24.0 4:1949.0 5:5986.0 
1.0 1:5984.0 2:1708.0 3:3339.0 4:9922.0 5:13699.0 6:1898.0 7:2453.0 8:8762.0 9:5986.0 
0.2846985731571718 1:5984.0 2:10216.0 3:14050.0 4:1708.0 5:8548.0 6:1898.0 7:1307.0 8:1949.0 9:5986.0 
0.9741873090041723 1:5984.0 2:10216.0 3:14050.0 4:1708.0 5:8548.0 6:1898.0 7:1307.0 8:1949.0 9:5986.0 
1.0 1:5984.0 2:8032.0 3:8120.0 4:8032.0 5:5986.0 
0.3666186987765498 1:5984.0 2:1949.0 3:8620.0 4:8762.0 5:3829.0 6:1898.0 7:8120.0 8:8032.0 9:5986.0 
0.9958176975691595 1:5984.0 2:1949.0 3:8620.0 4:8762.0 5:3829.0 6:1898.0 7:8120.0 8:8032.0 9:5986.0 
1.0 1:5984.0 2:1949.0 3:7992.0 4:8671.0 5:2375.0 6:3130.0 7:5908.0 8:1708.0 9:5986.0 
1.0 1:5984.0 2:6355.0 3:2375.0 4:8671.0 5:7992.0 6:1949.0 7:5986.0 
1.0 1:5984.0 2:7299.0 3:1307.0 4:8762.0 5:741.0 6:1708.0 7:772.0 8:1898.0 9:2042.0 10:8762.0 11:8745.0 12:1949.0 13:5986.0 
0.7218910943167095 1:5984.0 2:1949.0 3:9299.0 4:8762.0 5:3738.0 6:1898.0 7:3723.0 8:3647.0 9:1307.0 10:8762.0 11:741.0 12:1708.0 13:772.0 14:1898.0 15:2042.0 16:8762.0 17:8745.0 18:1949.0 19:5986.0 
1.0 1:5984.0 2:1898.0 3:3723.0 4:3647.0 5:1307.0 6:8762.0 7:741.0 8:1708.0 9:772.0 10:1898.0 11:2042.0 12:8762.0 13:8745.0 14:1949.0 15:5986.0 
0.963591922639642 1:5984.0 2:1949.0 3:9299.0 4:8762.0 5:3738.0 6:1898.0 7:3723.0 8:3647.0 9:1307.0 10:8762.0 11:741.0 12:1708.0 13:772.0 14:1898.0 15:2042.0 16:8762.0 17:8745.0 18:1949.0 19:5986.0 
1.0 1:5984.0 2:7299.0 3:1307.0 4:3647.0 5:3723.0 6:1898.0 7:5986.0 
0.5038859853879932 1:5984.0 2:8762.0 3:13313.0 4:1708.0 5:13979.0 6:1898.0 7:5986.0 
1.0 1:5984.0 2:1898.0 3:13979.0 4:8505.0 5:1838.0 6:8505.0 7:13313.0 8:3977.0 9:5986.0 
1.0 1:5984.0 2:1898.0 3:13979.0 4:8505.0 5:1838.0 6:8505.0 7:13313.0 8:3977.0 9:5986.0 
1.0 1:5984.0 2:3977.0 3:4421.0 4:3977.0 5:5986.0 
0.2836097582781711 1:5984.0 2:1949.0 3:4626.0 4:6355.0 5:4421.0 6:3977.0 7:5986.0 
0.9444124844260302 1:5984.0 2:1949.0 3:4626.0 4:6355.0 5:4421.0 6:3977.0 7:5986.0 
1.0 1:5984.0 2:7524.0 3:5908.0 4:7034.0 5:923.0 6:7034.0 7:24.0 8:1949.0 9:5986.0 
1.0 1:5984.0 2:7524.0 3:5908.0 4:7034.0 5:923.0 6:7034.0 7:5986.0 
1.0 1:5984.0 2:7034.0 3:923.0 4:7034.0 5:24.0 6:1949.0 7:5986.0 
1.0 1:5984.0 2:7034.0 3:923.0 4:7034.0 5:5986.0 
1.0 1:5984.0 2:7034.0 3:923.0 4:7034.0 5:5986.0 
1.0 1:5984.0 2:3977.0 3:14899.0 4:8509.0 5:5078.0 6:1898.0 7:8538.0 8:8025.0 9:14819.0 10:8762.0 11:1235.0 12:1949.0 13:5986.0 
0.9787372971566883 1:5984.0 2:1708.0 3:13313.0 4:1708.0 5:5986.0 
0.4005672328712752 1:5984.0 2:1708.0 3:3339.0 4:8748.0 5:5986.0 
1.0 1:5984.0 2:1708.0 3:3339.0 4:1708.0 5:5986.0 
0.4412965487201373 1:5984.0 2:6787.0 3:13726.0 4:6787.0 5:5986.0 
0.8083516390895331 1:5984.0 2:6355.0 3:11777.0 4:12187.0 5:5908.0 6:1898.0 7:13411.0 8:4424.0 9:6797.0 10:12187.0 11:12084.0 12:1949.0 13:5986.0 
0.9563983760797495 1:5984.0 2:6355.0 3:11777.0 4:12187.0 5:5908.0 6:1898.0 7:13411.0 8:4424.0 9:6797.0 10:12187.0 11:12084.0 12:1949.0 13:5986.0 
1.0 1:5984.0 2:6355.0 3:1786.0 4:12187.0 5:5469.0 6:1708.0 7:14195.0 8:9922.0 9:10995.0 10:1898.0 11:14050.0 12:10216.0 13:5986.0 
1.0 1:5984.0 2:6355.0 3:1786.0 4:12187.0 5:5469.0 6:1708.0 7:14195.0 8:9922.0 9:10995.0 10:1898.0 11:5986.0 
0.8808371386383937 1:5984.0 2:1708.0 3:6301.0 4:8748.0 5:14482.0 6:1949.0 7:5986.0 
0.1607157992318658 1:5984.0 2:8762.0 3:6533.0 4:1708.0 5:9488.0 6:1898.0 7:12876.0 8:7524.0 9:5986.0 
0.9676902580889313 1:5984.0 2:8762.0 3:6533.0 4:1708.0 5:9488.0 6:1898.0 7:12876.0 8:7524.0 9:5986.0 
0.7358449705444151 1:5984.0 2:7524.0 3:12876.0 4:1898.0 5:9488.0 6:11436.0 7:8548.0 8:1708.0 9:10060.0 10:8762.0 11:5986.0 
0.9608925241062594 1:5984.0 2:7524.0 3:12876.0 4:1898.0 5:9488.0 6:11436.0 7:8548.0 8:1708.0 9:10060.0 10:8762.0 11:5986.0 
1.0 1:5984.0 2:8748.0 3:8088.0 4:8748.0 5:5986.0 
0.42999808757275965 1:5984.0 2:1708.0 3:1744.0 4:3977.0 5:5986.0 
1.0 1:5984.0 2:3977.0 3:1744.0 4:8507.0 5:5986.0 
0.9952595902011911 1:5984.0 2:8762.0 3:14108.0 4:1898.0 5:11723.0 6:3998.0 7:5986.0 
0.6046182930141246 1:5984.0 2:1708.0 3:11723.0 4:1898.0 5:14108.0 6:8762.0 7:5986.0 
1.0 1:5984.0 2:8762.0 3:14108.0 4:1898.0 5:11723.0 6:3998.0 7:5908.0 8:4046.0 9:5986.0 
1.0 1:5984.0 2:6355.0 3:9959.0 4:7034.0 5:13225.0 6:7668.0 7:10715.0 8:1898.0 9:14108.0 10:1949.0 11:5986.0 
1.0 1:5984.0 2:1949.0 3:14108.0 4:1898.0 5:10715.0 6:3998.0 7:5908.0 8:4046.0 9:5986.0 
1.0 1:5984.0 2:1949.0 3:14108.0 4:1898.0 5:10715.0 6:3998.0 7:5986.0 
0.9332278836369344 1:5984.0 2:6787.0 3:8121.0 4:6787.0 5:1312.0 6:1949.0 7:5986.0 
1.0 1:5984.0 2:1949.0 3:1312.0 4:6787.0 5:8121.0 6:8756.0 7:5986.0 
0.9547167279343335 1:5984.0 2:6787.0 3:8121.0 4:8756.0 5:5986.0 
0.6738830518060123 1:5984.0 2:1949.0 3:24.0 4:1708.0 5:1200.0 6:1898.0 7:14482.0 8:8762.0 9:5908.0 10:7524.0 11:5986.0 
1.0 1:5984.0 2:1949.0 3:24.0 4:1708.0 5:1200.0 6:1898.0 7:14482.0 8:8762.0 9:5908.0 10:7524.0 11:5986.0 
1.0 1:5984.0 2:1949.0 3:6089.0 4:8671.0 5:11777.0 6:8671.0 7:12576.0 8:8762.0 9:5986.0 
0.6521245758541185 1:5984.0 2:3977.0 3:9678.0 4:8762.0 5:647.0 6:1708.0 7:7242.0 8:8671.0 9:12628.0 10:8762.0 11:5986.0 
0.9807275782639832 1:5984.0 2:3977.0 3:9678.0 4:8762.0 5:647.0 6:1708.0 7:7242.0 8:8671.0 9:12628.0 10:8762.0 11:5986.0 
1.0 1:5984.0 2:1949.0 3:24.0 4:1898.0 5:13699.0 6:9922.0 7:6908.0 8:4424.0 9:14050.0 10:1708.0 11:4964.0 12:8505.0 13:14072.0 14:9922.0 15:14120.0 16:1898.0 17:9570.0 18:8762.0 19:5986.0 
1.0 1:5984.0 2:1949.0 3:24.0 4:1898.0 5:13699.0 6:9922.0 7:6908.0 8:4424.0 9:14050.0 10:1708.0 11:4964.0 12:8505.0 13:14072.0 14:6355.0 15:717.0 16:1949.0 17:5986.0 
0.5285477234480034 1:5984.0 2:1949.0 3:8620.0 4:1898.0 5:13699.0 6:1898.0 7:24.0 8:1949.0 9:5986.0 
1.0 1:5984.0 2:1949.0 3:717.0 4:10643.0 5:14120.0 6:1898.0 7:9570.0 8:8762.0 9:5986.0 
1.0 1:5984.0 2:1949.0 3:24.0 4:1898.0 5:13699.0 6:9922.0 7:6908.0 8:4424.0 9:14050.0 10:1708.0 11:4964.0 12:8505.0 13:14072.0 14:9922.0 15:14120.0 16:1898.0 17:9570.0 18:8762.0 19:5986.0 
1.0 1:5984.0 2:1949.0 3:8620.0 4:1898.0 5:13699.0 6:9922.0 7:6908.0 8:4424.0 9:14050.0 10:1708.0 11:4964.0 12:8505.0 13:14072.0 14:6355.0 15:717.0 16:1949.0 17:5986.0 
1.0 1:5984.0 2:1949.0 3:24.0 4:1898.0 5:13699.0 6:9922.0 7:6908.0 8:4424.0 9:14050.0 10:1708.0 11:4964.0 12:8505.0 13:14072.0 14:6355.0 15:717.0 16:1949.0 17:5986.0 
0.968318434832715 1:5984.0 2:1949.0 3:8620.0 4:1898.0 5:13699.0 6:1898.0 7:24.0 8:1949.0 9:5986.0 
0.27842922896642863 1:5984.0 2:8762.0 3:7031.0 4:10643.0 5:3135.0 6:8748.0 7:5986.0 
0.964724843935577 1:5984.0 2:8762.0 3:7031.0 4:10643.0 5:3135.0 6:8748.0 7:5986.0 
0.6348346219612883 1:5984.0 2:6355.0 3:11777.0 4:8671.0 5:6911.0 6:8762.0 7:8620.0 8:1949.0 9:5986.0 
1.0 1:5984.0 2:1949.0 3:7488.0 4:8762.0 5:4429.0 6:1708.0 7:8611.0 8:8748.0 9:5908.0 10:1949.0 11:5986.0 
1.0 1:5984.0 2:1949.0 3:7488.0 4:8762.0 5:4429.0 6:1708.0 7:8611.0 8:8748.0 9:5986.0 
1.0 1:5984.0 2:7524.0 3:7488.0 4:8762.0 5:5099.0 6:1708.0 7:7152.0 8:8505.0 9:8330.0 10:1898.0 11:5986.0 
1.0 1:5984.0 2:1949.0 3:11858.0 4:8762.0 5:360.0 6:8748.0 7:10232.0 8:8032.0 9:5986.0 
0.4947875137814834 1:5984.0 2:2441.0 3:4626.0 4:2441.0 5:5986.0 
1.0 1:5984.0 2:2441.0 3:4626.0 4:2441.0 5:5986.0 
0.9945975350935172 1:5984.0 2:2441.0 3:4626.0 4:2441.0 5:5986.0 
1.0 1:5984.0 2:8762.0 3:3738.0 4:8762.0 5:5986.0 
1.0 1:5984.0 2:1949.0 3:4373.0 4:1708.0 5:5038.0 6:8032.0 7:5986.0 
1.0 1:5984.0 2:1949.0 3:8745.0 4:8762.0 5:14429.0 6:6355.0 7:13911.0 8:12187.0 9:8253.0 10:1949.0 11:5986.0 
0.3094965231082269 1:5984.0 2:8762.0 3:12716.0 4:4046.0 5:953.0 6:8756.0 7:4079.0 8:8762.0 9:5986.0 
1.0 1:5984.0 2:8762.0 3:12716.0 4:4046.0 5:953.0 6:7524.0 7:5986.0 
1.0 1:5984.0 2:8762.0 3:12716.0 4:4046.0 5:3713.0 6:8762.0 7:1307.0 8:8762.0 9:5986.0 
0.6057535983475051 1:5984.0 2:8762.0 3:12716.0 4:4046.0 5:3713.0 6:8762.0 7:1307.0 8:8762.0 9:5908.0 10:8756.0 11:14108.0 12:1949.0 13:5986.0 
0.9786558696266245 1:5984.0 2:8762.0 3:12716.0 4:4046.0 5:953.0 6:8756.0 7:4079.0 8:8762.0 9:5986.0 
0.9800466491511427 1:5984.0 2:8762.0 3:12716.0 4:4046.0 5:3713.0 6:8762.0 7:1307.0 8:8762.0 9:5908.0 10:8756.0 11:14108.0 12:1949.0 13:5986.0 
1.0 1:5984.0 2:7524.0 3:953.0 4:4046.0 5:12716.0 6:4046.0 7:3713.0 8:8762.0 9:1307.0 10:8762.0 11:5908.0 12:8762.0 13:12006.0 14:8762.0 15:5986.0 
0.6028081333595215 1:5984.0 2:7524.0 3:953.0 4:4046.0 5:12716.0 6:4046.0 7:3713.0 8:8762.0 9:1307.0 10:8762.0 11:5908.0 12:8756.0 13:14108.0 14:1949.0 15:5986.0 
1.0 1:5984.0 2:7524.0 3:953.0 4:8756.0 5:4079.0 6:8762.0 7:5986.0 
0.9989737075002639 1:5984.0 2:7524.0 3:953.0 4:4046.0 5:12716.0 6:4046.0 7:3713.0 8:8762.0 9:1307.0 10:8762.0 11:5908.0 12:8756.0 13:14108.0 14:1949.0 15:5986.0 
1.0 1:5984.0 2:8762.0 3:12716.0 4:8756.0 5:5986.0 
0.9771159378511185 1:5984.0 2:7524.0 3:12787.0 4:8756.0 5:1307.0 6:8762.0 7:5986.0 
1.0 1:5984.0 2:7034.0 3:425.0 4:11025.0 5:5986.0 
0.643103345063614 1:5984.0 2:1898.0 3:606.0 4:1898.0 5:5986.0 
1.0 1:5984.0 2:1708.0 3:8330.0 4:1898.0 5:2763.0 6:8509.0 7:12701.0 8:1708.0 9:5986.0 
0.8766974193572423 1:5984.0 2:1708.0 3:12701.0 4:7034.0 5:8620.0 6:1949.0 7:5986.0 
1.0 1:5984.0 2:1708.0 3:8330.0 4:1898.0 5:2763.0 6:8509.0 7:12701.0 8:1708.0 9:24.0 10:1949.0 11:5986.0 
0.8826293699153743 1:5984.0 2:1949.0 3:24.0 4:1708.0 5:12701.0 6:7034.0 7:8620.0 8:1949.0 9:5986.0 
0.7197539501684327 1:5984.0 2:1949.0 3:14130.0 4:8762.0 5:3552.0 6:6355.0 7:1212.0 8:8671.0 9:14050.0 10:7524.0 11:1825.0 12:8748.0 13:5986.0 
0.9654251536433927 1:5984.0 2:1949.0 3:14130.0 4:8762.0 5:3552.0 6:6355.0 7:1212.0 8:8671.0 9:14050.0 10:7524.0 11:1825.0 12:8748.0 13:5986.0 
1.0 1:5984.0 2:7524.0 3:1825.0 4:1949.0 5:5986.0 
1.0 1:5984.0 2:3977.0 3:5060.0 4:3977.0 5:14050.0 6:1949.0 7:5986.0 
0.5445411380313693 1:5984.0 2:1708.0 3:5060.0 4:3977.0 5:14050.0 6:1949.0 7:5986.0 
1.0 1:5984.0 2:6355.0 3:6908.0 4:8505.0 5:14341.0 6:1898.0 7:2763.0 8:7524.0 9:5986.0 
1.0 1:5984.0 2:7524.0 3:14066.0 4:1949.0 5:5986.0 
0.5975156955558611 1:5984.0 2:1708.0 3:6330.0 4:1898.0 5:2453.0 6:4424.0 7:12701.0 8:7034.0 9:14108.0 10:1949.0 11:5986.0 
0.9977914385721568 1:5984.0 2:1708.0 3:6330.0 4:1898.0 5:2453.0 6:4424.0 7:12701.0 8:7034.0 9:14108.0 10:1949.0 11:5986.0 
1.0 1:5984.0 2:1708.0 3:6330.0 4:4424.0 5:14190.0 6:1898.0 7:3231.0 8:8762.0 9:1649.0 10:8762.0 11:12765.0 12:6787.0 13:5986.0 
1.0 1:5984.0 2:7524.0 3:1649.0 4:1708.0 5:13546.0 6:8748.0 7:5986.0 
0.7254800425501039 1:5984.0 2:7524.0 3:3552.0 4:8671.0 5:5986.0 
0.38183580239694687 1:5984.0 2:8762.0 3:2798.0 4:1708.0 5:6549.0 6:3977.0 7:3738.0 8:8762.0 9:5986.0 
0.8961861839064051 1:5984.0 2:8762.0 3:2798.0 4:1708.0 5:6549.0 6:3977.0 7:3738.0 8:8762.0 9:5986.0 
0.2402523281307446 1:5984.0 2:8762.0 3:2798.0 4:1708.0 5:3347.0 6:4046.0 7:5986.0 
0.998454745748813 1:5984.0 2:8762.0 3:2798.0 4:1708.0 5:3347.0 6:4046.0 7:5986.0 
0.6531453145556669 1:5984.0 2:8762.0 3:2798.0 4:1708.0 5:3347.0 6:8748.0 7:5986.0 
1.0 1:5984.0 2:7524.0 3:3738.0 4:7524.0 5:5986.0 
1.0 1:5984.0 2:8762.0 3:2983.0 4:1708.0 5:2068.0 6:8032.0 7:3738.0 8:7524.0 9:5986.0 
0.21037115263526368 1:5984.0 2:1708.0 3:11033.0 4:1898.0 5:5986.0 
1.0 1:5984.0 2:1708.0 3:11033.0 4:1898.0 5:5986.0 
0.1138438079540479 1:5984.0 2:1708.0 3:7389.0 4:3977.0 5:5986.0 
1.0 1:5984.0 2:13529.0 3:5908.0 4:1708.0 5:2575.0 6:9922.0 7:12765.0 8:1708.0 9:5986.0 
1.0 1:5984.0 2:1708.0 3:7389.0 4:3977.0 5:5908.0 6:13529.0 7:5986.0 
1.0 1:5984.0 2:1949.0 3:13521.0 4:8762.0 5:5893.0 6:8762.0 7:5986.0 
1.0 1:5984.0 2:1949.0 3:13521.0 4:8762.0 5:5893.0 6:8762.0 7:5908.0 8:6174.0 9:5986.0 
0.3274522332364786 1:5984.0 2:7524.0 3:5908.0 4:3977.0 5:12218.0 6:4424.0 7:2448.0 8:1898.0 9:13108.0 10:8762.0 11:2763.0 12:6174.0 13:5986.0 
0.45031805584400203 1:5984.0 2:7524.0 3:5908.0 4:3977.0 5:12218.0 6:4424.0 7:2448.0 8:1898.0 9:13108.0 10:8762.0 11:5908.0 12:7524.0 13:5986.0 
0.7316396327129724 1:5984.0 2:7524.0 3:5908.0 4:3977.0 5:12218.0 6:4424.0 7:2448.0 8:1898.0 9:13108.0 10:8762.0 11:5986.0 
0.9994419737976247 1:5984.0 2:7524.0 3:5908.0 4:3977.0 5:12218.0 6:4424.0 7:2448.0 8:1898.0 9:13108.0 10:8762.0 11:2763.0 12:6174.0 13:5986.0 
1.0 1:5984.0 2:7524.0 3:5908.0 4:3977.0 5:12218.0 6:4424.0 7:2448.0 8:1898.0 9:13108.0 10:8762.0 11:5908.0 12:7524.0 13:5986.0 
0.9969110221501032 1:5984.0 2:7524.0 3:5908.0 4:3977.0 5:12218.0 6:4424.0 7:2448.0 8:1898.0 9:13108.0 10:8762.0 11:5986.0 
1.0 1:5984.0 2:1708.0 3:13279.0 4:3977.0 5:3031.0 6:7034.0 7:5986.0 
1.0 1:5984.0 2:8762.0 3:14862.0 4:1898.0 5:9724.0 6:8505.0 7:2389.0 8:1708.0 9:5986.0 
1.0 1:5984.0 2:8762.0 3:14862.0 4:1898.0 5:9724.0 6:8505.0 7:2389.0 8:1898.0 9:13225.0 10:7668.0 11:12235.0 12:1898.0 13:5986.0 
0.11884415166834209 1:5984.0 2:3977.0 3:12765.0 4:3977.0 5:5986.0 
1.0 1:5984.0 2:3977.0 3:12765.0 4:3977.0 5:5986.0 
0.47526991684012676 1:5984.0 2:8762.0 3:2145.0 4:1708.0 5:9206.0 6:8025.0 7:12765.0 8:3977.0 9:5986.0 
0.9410341757619048 1:5984.0 2:8762.0 3:2145.0 4:1708.0 5:9206.0 6:8025.0 7:12765.0 8:3977.0 9:5986.0 
1.0 1:5984.0 2:3977.0 3:12765.0 4:3977.0 5:5986.0 
0.32263549146312964 1:5984.0 2:7524.0 3:717.0 4:3977.0 5:12414.0 6:3130.0 7:8181.0 8:7034.0 9:10148.0 10:8762.0 11:5986.0 
1.0 1:5984.0 2:1949.0 3:717.0 4:3977.0 5:12414.0 6:3130.0 7:8181.0 8:7034.0 9:10148.0 10:8762.0 11:5986.0 
0.9982780554106191 1:5984.0 2:7524.0 3:717.0 4:3977.0 5:12414.0 6:3130.0 7:8181.0 8:7034.0 9:10148.0 10:8762.0 11:5986.0 
0.5123277176996105 1:5984.0 2:1708.0 3:12711.0 4:1898.0 5:8745.0 6:1949.0 7:5986.0 
0.4065539681565262 1:5984.0 2:7524.0 3:5170.0 4:10643.0 5:11777.0 6:3299.0 7:13480.0 8:8748.0 9:8620.0 10:1949.0 11:5986.0 
0.37471489994329715 1:5984.0 2:10643.0 3:11777.0 4:3299.0 5:13480.0 6:1898.0 7:5986.0 
0.0768896232873659 1:5984.0 2:10643.0 3:11777.0 4:3299.0 5:13480.0 6:8748.0 7:8620.0 8:1949.0 9:5986.0 
1.0 1:5984.0 2:7524.0 3:5170.0 4:10643.0 5:11777.0 6:3299.0 7:13480.0 8:1898.0 9:5986.0 
0.9987487295883558 1:5984.0 2:10643.0 3:11777.0 4:3299.0 5:13480.0 6:1898.0 7:5986.0 
0.8780407801810887 1:5984.0 2:1898.0 3:13480.0 4:8748.0 5:8620.0 6:1949.0 7:5986.0 
1.0 1:5984.0 2:7524.0 3:5170.0 4:10643.0 5:11777.0 6:3299.0 7:13480.0 8:8748.0 9:8620.0 10:1949.0 11:5986.0 
0.9994367503787486 1:5984.0 2:10643.0 3:11777.0 4:3299.0 5:13480.0 6:8748.0 7:8620.0 8:1949.0 9:5986.0 
1.0 1:5984.0 2:1708.0 3:5864.0 4:1708.0 5:5986.0 
1.0 1:5984.0 2:1949.0 3:12765.0 4:1949.0 5:5986.0 
1.0 1:5984.0 2:7524.0 3:7488.0 4:1949.0 5:5986.0 
1.0 1:5984.0 2:1949.0 3:14050.0 4:3977.0 5:13941.0 6:7034.0 7:14065.0 8:1708.0 9:8873.0 10:7524.0 11:5986.0 
1.0 1:5984.0 2:1949.0 3:8873.0 4:1708.0 5:13415.0 6:7034.0 7:5908.0 8:1949.0 9:5986.0 
1.0 1:5984.0 2:1949.0 3:13799.0 4:1898.0 5:6287.0 6:3977.0 7:12765.0 8:1949.0 9:5986.0 
1.0 1:5984.0 2:1949.0 3:8873.0 4:1708.0 5:9550.0 6:10049.0 7:6287.0 8:1898.0 9:13799.0 10:1949.0 11:5986.0 
1.0 1:5984.0 2:8762.0 3:3738.0 4:8762.0 5:5986.0 
1.0 1:5984.0 2:8762.0 3:3738.0 4:8762.0 5:5986.0 
1.0 1:5984.0 2:8762.0 3:3738.0 4:8762.0 5:5986.0 
1.0 1:5984.0 2:7524.0 3:1925.0 4:8671.0 5:12084.0 6:1949.0 7:5986.0 
1.0 1:5984.0 2:8762.0 3:10060.0 4:1708.0 5:2045.0 6:4046.0 7:14190.0 8:1708.0 9:3398.0 10:8762.0 11:5986.0 
1.0 1:5984.0 2:8762.0 3:2641.0 4:6355.0 5:1855.0 6:12187.0 7:14021.0 8:1898.0 9:13108.0 10:8762.0 11:5986.0 
0.6828503024559821 1:5984.0 2:1708.0 3:820.0 4:9922.0 5:5436.0 6:4046.0 7:3547.0 8:8671.0 9:3912.0 10:1949.0 11:5986.0 
1.0 1:5984.0 2:8762.0 3:5908.0 4:8762.0 5:5986.0 
1.0 1:5984.0 2:8762.0 3:5908.0 4:8762.0 5:5986.0 
0.973439191243666 1:5984.0 2:1708.0 3:820.0 4:9922.0 5:5436.0 6:4046.0 7:3547.0 8:8671.0 9:3912.0 10:1949.0 11:5986.0 
1.0 1:5984.0 2:8762.0 3:5908.0 4:8762.0 5:5986.0 
0.8544772112057151 1:5984.0 2:1898.0 3:10906.0 4:8748.0 5:8620.0 6:1949.0 7:5986.0 
0.7914410409299462 1:5984.0 2:8762.0 3:7180.0 4:8762.0 5:5908.0 6:8021.0 7:6637.0 8:8762.0 9:5908.0 10:7524.0 11:5986.0 
0.9689578029002367 1:5984.0 2:8762.0 3:7180.0 4:8762.0 5:5908.0 6:8021.0 7:6637.0 8:8762.0 9:5908.0 10:7524.0 11:5986.0 
1.0 1:5984.0 2:7524.0 3:14429.0 4:1898.0 5:540.0 6:9922.0 7:10447.0 8:8748.0 9:8647.0 10:8762.0 11:5986.0 
0.5797003056524302 1:5984.0 2:7524.0 3:5908.0 4:8748.0 5:3967.0 6:8505.0 7:5722.0 8:8505.0 9:14212.0 10:7450.0 11:1931.0 12:3977.0 13:5986.0 
0.9896986798392285 1:5984.0 2:7524.0 3:5908.0 4:8748.0 5:3967.0 6:8505.0 7:5722.0 8:8505.0 9:14212.0 10:7450.0 11:1931.0 12:3977.0 13:5986.0 
1.0 1:5984.0 2:8748.0 3:3967.0 4:8505.0 5:5722.0 6:8505.0 7:14212.0 8:7450.0 9:1931.0 10:3977.0 11:5986.0 
1.0 1:5984.0 2:8671.0 3:12787.0 4:7524.0 5:9550.0 6:7034.0 7:5986.0 
1.0 1:5984.0 2:8671.0 3:12787.0 4:7524.0 5:9550.0 6:7034.0 7:5908.0 8:1949.0 9:5986.0 
1.0 1:5984.0 2:8671.0 3:12787.0 4:1898.0 5:7807.0 6:4046.0 7:11935.0 8:6787.0 9:3552.0 10:4424.0 11:13957.0 12:9922.0 13:14065.0 14:7034.0 15:1825.0 16:1949.0 17:5986.0 
1.0 1:5984.0 2:8671.0 3:12787.0 4:1898.0 5:7807.0 6:4046.0 7:11935.0 8:6787.0 9:3552.0 10:4424.0 11:13957.0 12:9922.0 13:14065.0 14:7034.0 15:927.0 16:1949.0 17:5986.0 
0.03870583750822618 1:5984.0 2:12683.0 3:5908.0 4:4424.0 5:1064.0 6:8756.0 7:11650.0 8:8762.0 9:6952.0 10:8762.0 11:5986.0 
1.0 1:5984.0 2:12683.0 3:5908.0 4:4424.0 5:1064.0 6:8756.0 7:11650.0 8:8762.0 9:6952.0 10:8762.0 11:5986.0 
1.0 1:5984.0 2:12683.0 3:5908.0 4:4424.0 5:1064.0 6:8756.0 7:11650.0 8:8762.0 9:6952.0 10:8762.0 11:5986.0 
1.0 1:5984.0 2:1949.0 3:1825.0 4:8671.0 5:12895.0 6:8509.0 7:13313.0 8:8671.0 9:5908.0 10:1708.0 11:5986.0 
1.0 1:5984.0 2:1949.0 3:3758.0 4:1708.0 5:996.0 6:7034.0 7:1825.0 8:1949.0 9:5986.0 
1.0 1:5984.0 2:8762.0 3:8992.0 4:8762.0 5:14050.0 6:6174.0 7:5986.0 
0.7297011897967901 1:5984.0 2:6787.0 3:13710.0 4:6787.0 5:14050.0 6:1949.0 7:5986.0 
1.0 1:5984.0 2:1949.0 3:2763.0 4:8762.0 5:3359.0 6:1898.0 7:15110.0 8:4424.0 9:2768.0 10:1708.0 11:6912.0 12:3977.0 13:2763.0 14:1949.0 15:5986.0 
1.0 1:5984.0 2:7524.0 3:2768.0 4:4424.0 5:15110.0 6:1898.0 7:3359.0 8:8762.0 9:2763.0 10:1949.0 11:5986.0 
1.0 1:5984.0 2:1708.0 3:549.0 4:1898.0 5:13092.0 6:8762.0 7:2763.0 8:7524.0 9:5986.0 
1.0 1:5984.0 2:1708.0 3:2186.0 4:1898.0 5:12056.0 6:6787.0 7:5481.0 8:8762.0 9:5908.0 10:1949.0 11:5986.0 
1.0 1:5984.0 2:8748.0 3:5908.0 4:9922.0 5:12414.0 6:4424.0 7:4414.0 8:4046.0 9:5908.0 10:13529.0 11:3738.0 12:1898.0 13:5136.0 14:1708.0 15:719.0 16:1949.0 17:5986.0 
1.0 1:5984.0 2:7524.0 3:1307.0 4:8762.0 5:4414.0 6:4046.0 7:5908.0 8:13529.0 9:3738.0 10:1898.0 11:5136.0 12:1708.0 13:719.0 14:1949.0 15:5986.0 
1.0 1:5984.0 2:7524.0 3:1307.0 4:8762.0 5:4414.0 6:4424.0 7:12414.0 8:9922.0 9:5908.0 10:1898.0 11:6122.0 12:1949.0 13:5986.0 
1.0 1:5984.0 2:7524.0 3:1307.0 4:8762.0 5:4414.0 6:4424.0 7:12414.0 8:9922.0 9:5986.0 
1.0 1:5984.0 2:3977.0 3:5908.0 4:4046.0 5:4414.0 6:1949.0 7:5986.0 
1.0 1:5984.0 2:7524.0 3:1307.0 4:8762.0 5:4414.0 6:4424.0 7:12414.0 8:9922.0 9:5908.0 10:8748.0 11:5986.0 
1.0 1:5984.0 2:8762.0 3:5908.0 4:3977.0 5:5986.0 
1.0 1:5984.0 2:6355.0 3:7272.0 4:4046.0 5:9359.0 6:3977.0 7:5986.0 
1.0 1:5984.0 2:6355.0 3:7272.0 4:8505.0 5:6698.0 6:8505.0 7:10789.0 8:8021.0 9:6637.0 10:8762.0 11:5078.0 12:7524.0 13:5986.0 
1.0 1:5984.0 2:7524.0 3:5908.0 4:8509.0 5:5986.0 
0.5997606890068828 1:5984.0 2:7524.0 3:24.0 4:8762.0 5:3205.0 6:1898.0 7:5791.0 8:12586.0 9:5908.0 10:8509.0 11:5986.0 
0.6268111188945229 1:5984.0 2:1949.0 3:24.0 4:8762.0 5:3205.0 6:1898.0 7:5791.0 8:12586.0 9:5908.0 10:8509.0 11:5986.0 
1.0 1:5984.0 2:7524.0 3:5908.0 4:8509.0 5:5986.0 
0.9612536566529185 1:5984.0 2:7524.0 3:24.0 4:8762.0 5:3205.0 6:1898.0 7:5791.0 8:12586.0 9:5908.0 10:8509.0 11:5986.0 
1.0 1:5984.0 2:1949.0 3:24.0 4:8762.0 5:3205.0 6:1898.0 7:5791.0 8:12586.0 9:5908.0 10:8509.0 11:5986.0 
1.0 1:5984.0 2:1949.0 3:3205.0 4:8762.0 5:24.0 6:7524.0 7:5986.0 
0.7536168604153511 1:5984.0 2:1949.0 3:3205.0 4:8762.0 5:24.0 6:1949.0 7:5986.0 
1.0 1:5984.0 2:8762.0 3:11160.0 4:1898.0 5:14120.0 6:9922.0 7:14072.0 8:8509.0 9:7395.0 10:1898.0 11:1808.0 12:11797.0 13:13979.0 14:9922.0 15:2356.0 16:1898.0 17:8745.0 18:1949.0 19:5986.0 
0.525070768301452 1:5984.0 2:1708.0 3:1179.0 4:3977.0 5:5986.0 
1.0 1:5984.0 2:8762.0 3:5469.0 4:1708.0 5:13979.0 6:1898.0 7:5986.0 
0.7898310252336062 1:5984.0 2:1708.0 3:8266.0 4:1898.0 5:5986.0 
1.0 1:5984.0 2:8762.0 3:5469.0 4:1708.0 5:13979.0 6:1898.0 7:5908.0 8:1708.0 9:8266.0 10:1898.0 11:5986.0 
1.0 1:5984.0 2:7524.0 3:12787.0 4:8671.0 5:5986.0 
0.9639929330023426 1:5984.0 2:7524.0 3:12787.0 4:8671.0 5:5986.0 
1.0 1:5984.0 2:8032.0 3:10928.0 4:1708.0 5:5908.0 6:13529.0 7:11486.0 8:8762.0 9:8745.0 10:1949.0 11:5986.0 
1.0 1:5984.0 2:8032.0 3:10928.0 4:1708.0 5:5986.0 
1.0 1:5984.0 2:8762.0 3:727.0 4:1708.0 5:14115.0 6:12586.0 7:1737.0 8:8762.0 9:5986.0 
1.0 1:5984.0 2:8762.0 3:727.0 4:1708.0 5:14115.0 6:8032.0 7:5986.0 
1.0 1:5984.0 2:1949.0 3:10094.0 4:1898.0 5:9724.0 6:8671.0 7:5986.0 
1.0 1:5984.0 2:8762.0 3:5899.0 4:8671.0 5:8244.0 6:8762.0 7:5986.0 
1.0 1:5984.0 2:1708.0 3:12070.0 4:4424.0 5:13480.0 6:8748.0 7:14108.0 8:1949.0 9:5986.0 
1.0 1:5984.0 2:1708.0 3:2045.0 4:8671.0 5:1649.0 6:4424.0 7:776.0 8:12187.0 9:5986.0 
1.0 1:5984.0 2:1949.0 3:14108.0 4:1898.0 5:2045.0 6:8671.0 7:1649.0 8:4424.0 9:776.0 10:12187.0 11:5986.0 
0.6871101750242352 1:5984.0 2:7524.0 3:12411.0 4:1898.0 5:9910.0 6:3977.0 7:12765.0 8:4424.0 9:606.0 10:3397.0 11:5986.0 
0.9716260063934202 1:5984.0 2:7524.0 3:12411.0 4:1898.0 5:9910.0 6:3977.0 7:12765.0 8:4424.0 9:606.0 10:3397.0 11:5986.0 
0.3139249944640894 1:5984.0 2:3397.0 3:606.0 4:3397.0 5:5986.0 
1.0 1:5984.0 2:3397.0 3:606.0 4:3397.0 5:5986.0 
1.0 1:5984.0 2:6174.0 3:69.0 4:1708.0 5:5490.0 6:8671.0 7:5986.0 
1.0 1:5984.0 2:1898.0 3:12235.0 4:7668.0 5:13225.0 6:8748.0 7:1307.0 8:1708.0 9:6411.0 10:1898.0 11:24.0 12:4046.0 13:1307.0 14:7524.0 15:5986.0 
1.0 1:5984.0 2:1898.0 3:12235.0 4:7668.0 5:13225.0 6:8748.0 7:1307.0 8:1708.0 9:6411.0 10:1898.0 11:5986.0 
1.0 1:5984.0 2:1898.0 3:12235.0 4:7668.0 5:13225.0 6:8748.0 7:1307.0 8:1708.0 9:6411.0 10:1898.0 11:24.0 12:1949.0 13:5986.0 
1.0 1:5984.0 2:1898.0 3:6411.0 4:1898.0 5:24.0 6:4046.0 7:1307.0 8:7524.0 9:5986.0 
1.0 1:5984.0 2:1949.0 3:24.0 4:4046.0 5:1307.0 6:7524.0 7:5986.0 
1.0 1:5984.0 2:1708.0 3:9571.0 4:8509.0 5:6411.0 6:1898.0 7:24.0 8:4046.0 9:1307.0 10:7524.0 11:5986.0 
1.0 1:5984.0 2:8762.0 3:5469.0 4:1708.0 5:13979.0 6:1898.0 7:9767.0 8:8671.0 9:7504.0 10:7524.0 11:5986.0 
0.6373952697318725 1:5984.0 2:8762.0 3:5469.0 4:1708.0 5:13979.0 6:1898.0 7:9767.0 8:1949.0 9:5986.0 
0.6349860488540873 1:5984.0 2:8762.0 3:5469.0 4:1708.0 5:13979.0 6:1898.0 7:5908.0 8:1949.0 9:5986.0 
1.0 1:5984.0 2:7524.0 3:11929.0 4:6355.0 5:11777.0 6:8671.0 7:6322.0 8:8762.0 9:12179.0 10:7524.0 11:5986.0 
0.3282358480980699 1:5984.0 2:7524.0 3:13979.0 4:1708.0 5:908.0 6:1898.0 7:8189.0 8:8762.0 9:5986.0 
1.0 1:5984.0 2:8762.0 3:8189.0 4:8762.0 5:5986.0 
0.968259093974138 1:5984.0 2:7524.0 3:13979.0 4:1708.0 5:908.0 6:1898.0 7:8189.0 8:8762.0 9:5986.0 
1.0 1:5984.0 2:7524.0 3:12765.0 4:6355.0 5:5690.0 6:8762.0 7:5170.0 8:8762.0 9:5986.0 
1.0 1:5984.0 2:8762.0 3:5170.0 4:8762.0 5:10868.0 6:1949.0 7:5986.0 
1.0 1:5984.0 2:7524.0 3:12765.0 4:6355.0 5:5690.0 6:8762.0 7:5170.0 8:8762.0 9:5908.0 10:6174.0 11:5986.0 
0.32173657127745175 1:5984.0 2:7524.0 3:12765.0 4:6355.0 5:5690.0 6:8762.0 7:5170.0 8:8762.0 9:10868.0 10:1949.0 11:5986.0 
1.0 1:5984.0 2:7524.0 3:12765.0 4:6355.0 5:5690.0 6:8762.0 7:5170.0 8:8762.0 9:10868.0 10:1949.0 11:5986.0 
1.0 1:5984.0 2:6174.0 3:5908.0 4:8762.0 5:5170.0 6:8762.0 7:10868.0 8:1949.0 9:5986.0 
1.0 1:5984.0 2:7524.0 3:2763.0 4:3977.0 5:14050.0 6:1949.0 7:5986.0 
1.0 1:5984.0 2:4046.0 3:25.0 4:4046.0 5:5986.0 
1.0 1:5984.0 2:4046.0 3:25.0 4:4046.0 5:5986.0 
1.0 1:5984.0 2:4046.0 3:25.0 4:4046.0 5:5986.0 
1.0 1:5984.0 2:4046.0 3:25.0 4:4046.0 5:5986.0 
1.0 1:5984.0 2:4046.0 3:25.0 4:4046.0 5:5986.0 
1.0 1:5984.0 2:1898.0 3:8330.0 4:4046.0 5:8317.0 6:8032.0 7:5908.0 8:6174.0 9:5986.0 
1.0 1:5984.0 2:1898.0 3:8330.0 4:4046.0 5:8317.0 6:8032.0 7:5908.0 8:1949.0 9:5986.0 
0.42034614672651943 1:5984.0 2:1708.0 3:12369.0 4:1708.0 5:5986.0 
1.0 1:5984.0 2:1708.0 3:12369.0 4:1708.0 5:5986.0 
0.8663960859037241 1:5984.0 2:1708.0 3:12369.0 4:1708.0 5:5986.0 
0.5917901038022013 1:5984.0 2:8762.0 3:2145.0 4:1708.0 5:4421.0 6:3977.0 7:5986.0 
1.0 1:5984.0 2:8762.0 3:5017.0 4:1708.0 5:7185.0 6:8505.0 7:13136.0 8:8032.0 9:1184.0 10:8762.0 11:5986.0 
1.0 1:5984.0 2:1949.0 3:7488.0 4:8762.0 5:8253.0 6:13529.0 7:472.0 8:8671.0 9:15010.0 10:1708.0 11:5908.0 12:4424.0 13:2448.0 14:1898.0 15:5986.0 
1.0 1:5984.0 2:1949.0 3:1184.0 4:1708.0 5:1393.0 6:7034.0 7:7389.0 8:8762.0 9:5986.0 
1.0 1:5984.0 2:7524.0 3:7804.0 4:1708.0 5:10237.0 6:1898.0 7:14108.0 8:1949.0 9:5986.0 
0.6679946589315483 1:5984.0 2:1949.0 3:8890.0 4:8762.0 5:11991.0 6:8762.0 7:15044.0 8:6355.0 9:743.0 10:12187.0 11:6637.0 12:1949.0 13:5986.0 
1.0 1:5984.0 2:8762.0 3:7349.0 4:8762.0 5:15044.0 6:6355.0 7:743.0 8:12187.0 9:6637.0 10:1949.0 11:5986.0 
0.9740542413868146 1:5984.0 2:1949.0 3:8890.0 4:8762.0 5:11991.0 6:8762.0 7:15044.0 8:6355.0 9:743.0 10:12187.0 11:6637.0 12:1949.0 13:5986.0 
1.0 1:5984.0 2:7524.0 3:719.0 4:1949.0 5:5986.0 
1.0 1:5984.0 2:8762.0 3:14597.0 4:1708.0 5:6100.0 6:1898.0 7:11703.0 8:8762.0 9:1307.0 10:7524.0 11:5986.0 
0.8516804393942586 1:5984.0 2:8762.0 3:3738.0 4:1708.0 5:13230.0 6:1898.0 7:1307.0 8:1949.0 9:5986.0 
1.0 1:5984.0 2:7524.0 3:1307.0 4:8762.0 5:11703.0 6:1898.0 7:6100.0 8:3977.0 9:2042.0 10:8762.0 11:719.0 12:7524.0 13:5986.0 
1.0 1:5984.0 2:1949.0 3:5908.0 4:8762.0 5:5986.0 
0.9320129226179182 1:5984.0 2:1708.0 3:1714.0 4:1898.0 5:5908.0 6:8762.0 7:8620.0 8:1949.0 9:5986.0 
1.0 1:5984.0 2:1949.0 3:8620.0 4:8762.0 5:2951.0 6:1708.0 7:2584.0 8:1898.0 9:2931.0 10:7299.0 11:5986.0 
0.03986010807757519 1:5984.0 2:1708.0 3:13979.0 4:1898.0 5:5986.0 
1.0 1:5984.0 2:8671.0 3:5469.0 4:1708.0 5:11858.0 6:8671.0 7:4219.0 8:8762.0 9:1307.0 10:8762.0 11:5986.0 
1.0 1:5984.0 2:7524.0 3:5908.0 4:1949.0 5:5986.0 
1.0 1:5984.0 2:7524.0 3:5908.0 4:7524.0 5:5986.0 
1.0 1:5984.0 2:7524.0 3:5908.0 4:8762.0 5:1213.0 6:7034.0 7:13957.0 8:7034.0 9:741.0 10:4046.0 11:5986.0 
1.0 1:5984.0 2:7524.0 3:5908.0 4:8762.0 5:1213.0 6:7034.0 7:13957.0 8:7034.0 9:741.0 10:8762.0 11:5986.0 
1.0 1:5984.0 2:1949.0 3:12535.0 4:8762.0 5:9851.0 6:10643.0 7:13401.0 8:8671.0 9:12381.0 10:8762.0 11:3738.0 12:1949.0 13:5986.0 
1.0 1:5984.0 2:1949.0 3:7389.0 4:1898.0 5:3360.0 6:8756.0 7:14108.0 8:1949.0 9:5986.0 
1.0 1:5984.0 2:9922.0 3:10447.0 4:8505.0 5:5805.0 6:1708.0 7:5986.0 
0.29566044353807935 1:5984.0 2:8762.0 3:7880.0 4:1708.0 5:1825.0 6:9922.0 7:5986.0 
0.9219143925605195 1:5984.0 2:8762.0 3:7880.0 4:1708.0 5:1825.0 6:9922.0 7:5986.0 
1.0 1:5984.0 2:1949.0 3:24.0 4:13529.0 5:1616.0 6:1708.0 7:2609.0 8:9922.0 9:495.0 10:9922.0 11:10929.0 12:3299.0 13:11288.0 14:3977.0 15:5986.0 
1.0 1:5984.0 2:1949.0 3:24.0 4:13529.0 5:1616.0 6:1708.0 7:2609.0 8:8505.0 9:8635.0 10:6355.0 11:3339.0 12:8748.0 13:5986.0 
1.0 1:5984.0 2:1949.0 3:5908.0 4:8762.0 5:5289.0 6:1898.0 7:2236.0 8:3977.0 9:6911.0 10:8762.0 11:3982.0 12:1949.0 13:5986.0 
1.0 1:5984.0 2:1949.0 3:5908.0 4:8762.0 5:5289.0 6:1898.0 7:2236.0 8:3977.0 9:1713.0 10:8762.0 11:5986.0 
1.0 1:5984.0 2:8032.0 3:5908.0 4:6355.0 5:1212.0 6:8671.0 7:4844.0 8:8762.0 9:5078.0 10:7524.0 11:5986.0 
0.801970036466315 1:5984.0 2:8762.0 3:5289.0 4:4032.0 5:13774.0 6:4046.0 7:1212.0 8:6355.0 9:5908.0 10:8032.0 11:5986.0 
0.9608573682456826 1:5984.0 2:8762.0 3:5289.0 4:4032.0 5:13774.0 6:4046.0 7:1212.0 8:6355.0 9:5908.0 10:8032.0 11:5986.0 
1.0 1:5984.0 2:8762.0 3:5289.0 4:4032.0 5:13774.0 6:4046.0 7:1212.0 8:8671.0 9:4844.0 10:8762.0 11:5078.0 12:7524.0 13:5986.0 
1.0 1:5984.0 2:1898.0 3:606.0 4:1898.0 5:5986.0 
1.0 1:5984.0 2:1708.0 3:859.0 4:6705.0 5:5986.0 
1.0 1:5984.0 2:1949.0 3:8745.0 4:8762.0 5:10191.0 6:1708.0 7:776.0 8:8032.0 9:8253.0 10:8762.0 11:5986.0 
1.0 1:5984.0 2:8762.0 3:12429.0 4:1708.0 5:6330.0 6:4046.0 7:5617.0 8:8087.0 9:9313.0 10:1898.0 11:6263.0 12:7524.0 13:5986.0 
1.0 1:5984.0 2:1708.0 3:14050.0 4:1708.0 5:12056.0 6:1898.0 7:11929.0 8:7524.0 9:5986.0 
1.0 1:5984.0 2:6174.0 3:7232.0 4:13529.0 5:5986.0 
1.0 1:5984.0 2:6174.0 3:7232.0 4:13529.0 5:5908.0 6:7524.0 7:5986.0 
0.4746872873116798 1:5984.0 2:1949.0 3:1737.0 4:8671.0 5:24.0 6:1949.0 7:5986.0 
0.8371871075642873 1:5984.0 2:1949.0 3:1737.0 4:8671.0 5:5986.0 
0.8028832226485002 1:5984.0 2:1949.0 3:1737.0 4:8671.0 5:24.0 6:1949.0 7:5986.0 
1.0 1:5984.0 2:1949.0 3:1737.0 4:8671.0 5:5986.0 
1.0 1:5984.0 2:1708.0 3:10737.0 4:1708.0 5:5986.0 
1.0 1:5984.0 2:1708.0 3:10737.0 4:1708.0 5:5986.0 
1.0 1:5984.0 2:8762.0 3:15093.0 4:1708.0 5:14317.0 6:3977.0 7:10373.0 8:8762.0 9:5986.0 
1.0 1:5984.0 2:8507.0 3:12414.0 4:3977.0 5:8620.0 6:1949.0 7:5986.0 
0.3455077560106491 1:5984.0 2:6355.0 3:12414.0 4:3977.0 5:8620.0 6:1949.0 7:5986.0 
1.0 1:5984.0 2:8762.0 3:7909.0 4:1708.0 5:5855.0 6:8748.0 7:5986.0 
1.0 1:5984.0 2:8762.0 3:7909.0 4:13529.0 5:2763.0 6:4424.0 7:9095.0 8:8748.0 9:8745.0 10:1949.0 11:5986.0 
0.2405018332380357 1:5984.0 2:1898.0 3:820.0 4:1898.0 5:5986.0 
1.0 1:5984.0 2:1898.0 3:820.0 4:1898.0 5:5986.0 
1.0 1:5984.0 2:1898.0 3:820.0 4:1898.0 5:5986.0 
1.0 1:5984.0 2:1898.0 3:820.0 4:1898.0 5:5986.0 
1.0 1:5984.0 2:1898.0 3:820.0 4:1898.0 5:5986.0 
1.0 1:5984.0 2:6355.0 3:2375.0 4:9922.0 5:820.0 6:3977.0 7:5908.0 8:8671.0 9:5805.0 10:1708.0 11:5986.0 
1.0 1:5984.0 2:7524.0 3:10608.0 4:8025.0 5:2763.0 6:7524.0 7:5986.0 
1.0 1:5984.0 2:1949.0 3:14050.0 4:8762.0 5:9103.0 6:1708.0 7:9587.0 8:8505.0 9:12745.0 10:3977.0 11:5908.0 12:4046.0 13:14137.0 14:1708.0 15:10608.0 16:7524.0 17:5986.0 
1.0 1:5984.0 2:1949.0 3:14050.0 4:8762.0 5:9103.0 6:1708.0 7:9587.0 8:8505.0 9:12745.0 10:3977.0 11:5908.0 12:4046.0 13:14137.0 14:1708.0 15:10608.0 16:4046.0 17:5986.0 
1.0 1:5984.0 2:1949.0 3:14050.0 4:8762.0 5:9103.0 6:1708.0 7:9587.0 8:8505.0 9:12745.0 10:3977.0 11:5908.0 12:4046.0 13:14137.0 14:1708.0 15:5986.0 
0.6705775583829521 1:5984.0 2:8762.0 3:11423.0 4:4046.0 5:5908.0 6:4046.0 7:15094.0 8:4046.0 9:5986.0 
0.9777098700816933 1:5984.0 2:8762.0 3:11423.0 4:4046.0 5:5908.0 6:4046.0 7:15094.0 8:4046.0 9:5986.0 
0.3727709030683517 1:5984.0 2:7524.0 3:8504.0 4:7524.0 5:5986.0 
1.0 1:5984.0 2:7524.0 3:8504.0 4:7524.0 5:5986.0 
0.13554806559600288 1:5984.0 2:7524.0 3:8504.0 4:4620.0 5:5986.0 
0.9968753804017144 1:5984.0 2:7524.0 3:8504.0 4:4620.0 5:5986.0 
0.6566103016787079 1:5984.0 2:7524.0 3:8504.0 4:8671.0 5:4964.0 6:6355.0 7:5986.0 
1.0 1:5984.0 2:7524.0 3:8504.0 4:7524.0 5:5986.0 
0.5949520687274611 1:5984.0 2:7524.0 3:8504.0 4:8671.0 5:4964.0 6:6355.0 7:5908.0 8:13529.0 9:5986.0 
0.9846439014237035 1:5984.0 2:7524.0 3:8504.0 4:8671.0 5:4964.0 6:6355.0 7:5986.0 
1.0 1:5984.0 2:7524.0 3:8504.0 4:8671.0 5:4964.0 6:6355.0 7:5908.0 8:13529.0 9:5986.0 
1.0 1:5984.0 2:8762.0 3:2608.0 4:6355.0 5:12414.0 6:3977.0 7:2608.0 8:7524.0 9:5986.0 
1.0 1:5984.0 2:7524.0 3:5908.0 4:8762.0 5:2608.0 6:1708.0 7:11251.0 8:4046.0 9:4998.0 10:6593.0 11:3738.0 12:7524.0 13:5986.0 
1.0 1:5984.0 2:7524.0 3:5908.0 4:8762.0 5:2608.0 6:1708.0 7:11251.0 8:4046.0 9:4998.0 10:6593.0 11:3738.0 12:1949.0 13:5986.0 
1.0 1:5984.0 2:1949.0 3:3738.0 4:8762.0 5:2608.0 6:1708.0 7:11251.0 8:4046.0 9:4998.0 10:6593.0 11:3738.0 12:7524.0 13:5986.0 
1.0 1:5984.0 2:1949.0 3:3738.0 4:8762.0 5:2608.0 6:1708.0 7:11251.0 8:4046.0 9:4998.0 10:6593.0 11:3738.0 12:1949.0 13:5986.0 
1.0 1:5984.0 2:8762.0 3:2608.0 4:1708.0 5:11251.0 6:4046.0 7:4998.0 8:6593.0 9:3738.0 10:7524.0 11:5986.0 
1.0 1:5984.0 2:8762.0 3:2608.0 4:1708.0 5:11251.0 6:4046.0 7:4998.0 8:6593.0 9:3738.0 10:1949.0 11:5986.0 
1.0 1:5984.0 2:3977.0 3:14050.0 4:1708.0 5:14807.0 6:1898.0 7:2867.0 8:8748.0 9:6954.0 10:1708.0 11:9860.0 12:1898.0 13:5986.0 
0.4414701765374306 1:5984.0 2:3977.0 3:14050.0 4:1708.0 5:14807.0 6:1898.0 7:2867.0 8:8748.0 9:5986.0 
0.998256061779914 1:5984.0 2:3977.0 3:14050.0 4:1708.0 5:14807.0 6:1898.0 7:2867.0 8:8748.0 9:5986.0 
1.0 1:5984.0 2:8762.0 3:7180.0 4:1898.0 5:820.0 6:1898.0 7:4414.0 8:1949.0 9:5986.0 
1.0 1:5984.0 2:7524.0 3:6902.0 4:3977.0 5:13040.0 6:10643.0 7:2640.0 8:1898.0 9:5986.0 
0.6635064056875363 1:5984.0 2:1898.0 3:3723.0 4:4424.0 5:10789.0 6:1708.0 7:4020.0 8:1898.0 9:5986.0 
0.9958396102221543 1:5984.0 2:1898.0 3:3723.0 4:4424.0 5:10789.0 6:1708.0 7:4020.0 8:1898.0 9:5986.0 
1.0 1:5984.0 2:1898.0 3:2278.0 4:1898.0 5:5986.0 
1.0 1:5984.0 2:1898.0 3:2278.0 4:1898.0 5:5986.0 
1.0 1:5984.0 2:8762.0 3:13620.0 4:8756.0 5:14115.0 6:1949.0 7:5986.0 
1.0 1:5984.0 2:8762.0 3:5880.0 4:1708.0 5:12235.0 6:1898.0 7:13606.0 8:8762.0 9:8745.0 10:1949.0 11:5986.0 
0.6968227110416757 1:5984.0 2:1949.0 3:14108.0 4:6355.0 5:10722.0 6:12187.0 7:5986.0 
0.5015205716269643 1:5984.0 2:8762.0 3:9222.0 4:1708.0 5:5864.0 6:1898.0 7:10608.0 8:7034.0 9:11858.0 10:1949.0 11:5986.0 
1.0 1:5984.0 2:8762.0 3:9222.0 4:1708.0 5:5864.0 6:1898.0 7:10608.0 8:7034.0 9:11858.0 10:1949.0 11:5986.0 
1.0 1:5984.0 2:7524.0 3:5908.0 4:1949.0 5:5986.0 
1.0 1:5984.0 2:1949.0 3:13228.0 4:8762.0 5:8320.0 6:1708.0 7:818.0 8:12586.0 9:8435.0 10:8762.0 11:5908.0 12:1949.0 13:5986.0 
1.0 1:5984.0 2:7524.0 3:5908.0 4:7524.0 5:5986.0 
1.0 1:5984.0 2:1949.0 3:13228.0 4:8762.0 5:8320.0 6:1708.0 7:818.0 8:12586.0 9:8435.0 10:8762.0 11:5908.0 12:7524.0 13:5986.0 
1.0 1:5984.0 2:7034.0 3:3256.0 4:6355.0 5:1602.0 6:8671.0 7:11061.0 8:4046.0 9:11858.0 10:1949.0 11:5986.0 
1.0 1:5984.0 2:3977.0 3:6263.0 4:1708.0 5:7311.0 6:8671.0 7:10391.0 8:1949.0 9:5986.0 
0.4960782787266197 1:5984.0 2:3977.0 3:6263.0 4:1708.0 5:7311.0 6:8748.0 7:3547.0 8:8671.0 9:10391.0 10:1949.0 11:5986.0 
0.9976016956420753 1:5984.0 2:3977.0 3:6263.0 4:1708.0 5:7311.0 6:8748.0 7:3547.0 8:8671.0 9:10391.0 10:1949.0 11:5986.0 
0.4859995103651972 1:5984.0 2:1949.0 3:11712.0 4:8762.0 5:6263.0 6:1708.0 7:11770.0 8:1898.0 9:13710.0 10:3977.0 11:5986.0 
0.1367132022350212 1:5984.0 2:1949.0 3:6263.0 4:1708.0 5:11770.0 6:1898.0 7:13710.0 8:3977.0 9:5986.0 
1.0 1:5984.0 2:1949.0 3:6263.0 4:8762.0 5:11712.0 6:1949.0 7:5986.0 
1.0 1:5984.0 2:1949.0 3:11712.0 4:8762.0 5:6263.0 6:1708.0 7:11770.0 8:1898.0 9:13710.0 10:3977.0 11:5986.0 
0.9695970062241361 1:5984.0 2:1949.0 3:6263.0 4:1708.0 5:11770.0 6:1898.0 7:13710.0 8:3977.0 9:5986.0 
1.0 1:5984.0 2:1708.0 3:7826.0 4:1708.0 5:2580.0 6:1949.0 7:5986.0 
1.0 1:5984.0 2:1708.0 3:7826.0 4:9922.0 5:5986.0 
1.0 1:5984.0 2:1949.0 3:7031.0 4:3977.0 5:7826.0 6:9922.0 7:5986.0 
0.507537826619275 1:5984.0 2:8762.0 3:5174.0 4:1708.0 5:5908.0 6:1898.0 7:3398.0 8:8762.0 9:5286.0 10:7524.0 11:5986.0 
1.0 1:5984.0 2:8762.0 3:5174.0 4:1708.0 5:5908.0 6:1898.0 7:3398.0 8:8762.0 9:5286.0 10:7524.0 11:5986.0 
0.7081229835447024 1:5984.0 2:1898.0 3:4205.0 4:4424.0 5:14050.0 6:1708.0 7:5908.0 8:12683.0 9:5986.0 
0.9664750041765927 1:5984.0 2:1898.0 3:4205.0 4:4424.0 5:14050.0 6:1708.0 7:5908.0 8:12683.0 9:5986.0 
1.0 1:5984.0 2:12683.0 3:5908.0 4:12683.0 5:5986.0 
1.0 1:5984.0 2:7524.0 3:5245.0 4:1949.0 5:5986.0 
1.0 1:5984.0 2:7524.0 3:11303.0 4:1949.0 5:5986.0 
1.0 1:5984.0 2:1708.0 3:5805.0 4:8671.0 5:13049.0 6:7524.0 7:5986.0 
1.0 1:5984.0 2:1708.0 3:5805.0 4:8671.0 5:13049.0 6:7524.0 7:5986.0 
1.0 1:5984.0 2:8645.0 3:14215.0 4:8645.0 5:5908.0 6:13529.0 7:14050.0 8:1708.0 9:7100.0 10:9922.0 11:13313.0 12:1708.0 13:8745.0 14:1949.0 15:5986.0 
1.0 1:5984.0 2:7524.0 3:24.0 4:1949.0 5:5986.0 
1.0 1:5984.0 2:7524.0 3:24.0 4:1949.0 5:5986.0 
1.0 1:5984.0 2:7524.0 3:24.0 4:7524.0 5:5986.0 
1.0 1:5984.0 2:1708.0 3:2045.0 4:1898.0 5:5308.0 6:8762.0 7:9299.0 8:1949.0 9:5986.0 
0.49122936392070105 1:5984.0 2:8671.0 3:14570.0 4:9922.0 5:2236.0 6:7034.0 7:14050.0 8:7524.0 9:5986.0 
0.9993500595428595 1:5984.0 2:8671.0 3:14570.0 4:9922.0 5:2236.0 6:7034.0 7:14050.0 8:7524.0 9:5986.0 
1.0 1:5984.0 2:7524.0 3:5286.0 4:8671.0 5:14570.0 6:9922.0 7:2236.0 8:7034.0 9:14050.0 10:7524.0 11:5986.0 
1.0 1:5984.0 2:8762.0 3:3738.0 4:8762.0 5:5986.0 
1.0 1:5984.0 2:8762.0 3:3738.0 4:8762.0 5:10237.0 6:7524.0 7:5986.0 
1.0 1:5984.0 2:7524.0 3:5469.0 4:1708.0 5:2175.0 6:3977.0 7:5986.0 
1.0 1:5984.0 2:7524.0 3:5469.0 4:1949.0 5:5986.0 
1.0 1:5984.0 2:7524.0 3:9299.0 4:1898.0 5:8267.0 6:9922.0 7:2395.0 8:9922.0 9:8642.0 10:9922.0 11:5060.0 12:3977.0 13:5986.0 
1.0 1:5984.0 2:8762.0 3:2214.0 4:6355.0 5:1192.0 6:12187.0 7:1825.0 8:7668.0 9:5986.0 
1.0 1:5984.0 2:1949.0 3:8620.0 4:3977.0 5:2214.0 6:6355.0 7:1192.0 8:12187.0 9:1825.0 10:7668.0 11:5986.0 
0.6601931371849712 1:5984.0 2:8762.0 3:2214.0 4:3977.0 5:8620.0 6:1949.0 7:5986.0 
1.0 1:5984.0 2:1708.0 3:9458.0 4:8671.0 5:5986.0 
0.21523563694995834 1:5984.0 2:1708.0 3:9458.0 4:8671.0 5:24.0 6:1949.0 7:5986.0 
1.0 1:5984.0 2:1708.0 3:9458.0 4:8671.0 5:24.0 6:1949.0 7:5986.0 
0.5359598567429689 1:5984.0 2:1949.0 3:8620.0 4:1898.0 5:12056.0 6:4424.0 7:15165.0 8:1898.0 9:8244.0 10:1949.0 11:5986.0 
0.19332653765256994 1:5984.0 2:8671.0 3:12056.0 4:1898.0 5:8620.0 6:1949.0 7:5986.0 
0.9681593719845113 1:5984.0 2:8671.0 3:12056.0 4:1898.0 5:8620.0 6:1949.0 7:5986.0 
0.9981349530010839 1:5984.0 2:1949.0 3:8620.0 4:1898.0 5:12056.0 6:4424.0 7:15165.0 8:1898.0 9:8244.0 10:1949.0 11:5986.0 
0.4260736094650849 1:5984.0 2:8671.0 3:12056.0 4:4424.0 5:15165.0 6:1898.0 7:8244.0 8:1949.0 9:5986.0 
0.995771184493655 1:5984.0 2:8671.0 3:12056.0 4:4424.0 5:15165.0 6:1898.0 7:8244.0 8:1949.0 9:5986.0 
0.7821470540267931 1:5984.0 2:6355.0 3:11777.0 4:8671.0 5:6911.0 6:8762.0 7:881.0 8:1949.0 9:5986.0 
1.0 1:5984.0 2:1949.0 3:13049.0 4:3977.0 5:4018.0 6:1708.0 7:4608.0 8:11025.0 9:8647.0 10:8762.0 11:5986.0 
1.0 1:5984.0 2:1949.0 3:14108.0 4:8762.0 5:8535.0 6:1708.0 7:12905.0 8:11025.0 9:8647.0 10:8762.0 11:5986.0 
1.0 1:5984.0 2:3977.0 3:12905.0 4:8025.0 5:65.0 6:7034.0 7:719.0 8:1949.0 9:5986.0 
0.8884557962056404 1:5984.0 2:11436.0 3:13651.0 4:11436.0 5:5986.0 
0.6623443342792503 1:5984.0 2:8762.0 3:3738.0 4:8762.0 5:2042.0 6:6787.0 7:13651.0 8:11436.0 9:5986.0 
0.9890339134885922 1:5984.0 2:8762.0 3:3738.0 4:8762.0 5:2042.0 6:6787.0 7:13651.0 8:11436.0 9:5986.0 
0.9993935548960228 1:5984.0 2:11436.0 3:13651.0 4:11436.0 5:5986.0 
0.91886388508627 1:5984.0 2:8762.0 3:8535.0 4:1708.0 5:14649.0 6:1898.0 7:1307.0 8:1949.0 9:5986.0 
1.0 1:5984.0 2:7524.0 3:12787.0 4:8762.0 5:12218.0 6:8032.0 7:14649.0 8:10127.0 9:4210.0 10:8762.0 11:5986.0 
1.0 1:5984.0 2:7524.0 3:3738.0 4:7524.0 5:5986.0 
0.484929420696124 1:5984.0 2:8762.0 3:13710.0 4:8762.0 5:5908.0 6:3977.0 7:5986.0 
0.9749818935635702 1:5984.0 2:8762.0 3:13710.0 4:8762.0 5:5908.0 6:3977.0 7:5986.0 
0.81310411796697 1:5984.0 2:6355.0 3:1808.0 4:8671.0 5:8584.0 6:8025.0 7:4989.0 8:1708.0 9:8773.0 10:3977.0 11:14429.0 12:8762.0 13:5986.0 
0.9583188190564034 1:5984.0 2:6355.0 3:1808.0 4:8671.0 5:8584.0 6:8025.0 7:4989.0 8:1708.0 9:8773.0 10:3977.0 11:14429.0 12:8762.0 13:5986.0 
1.0 1:5984.0 2:7524.0 3:24.0 4:7524.0 5:5986.0 
0.5061587611459409 1:5984.0 2:1949.0 3:24.0 4:4424.0 5:8402.0 6:8671.0 7:1307.0 8:7524.0 9:5986.0 
1.0 1:5984.0 2:7524.0 3:24.0 4:8762.0 5:4588.0 6:6355.0 7:2764.0 8:12187.0 9:3547.0 10:8671.0 11:24.0 12:4424.0 13:8402.0 14:8671.0 15:1307.0 16:7524.0 17:5986.0 
1.0 1:5984.0 2:1949.0 3:24.0 4:8762.0 5:4588.0 6:6355.0 7:2764.0 8:12187.0 9:3547.0 10:8671.0 11:24.0 12:4424.0 13:8402.0 14:8671.0 15:1307.0 16:7524.0 17:5986.0 
1.0 1:5984.0 2:1949.0 3:24.0 4:4424.0 5:8402.0 6:8671.0 7:1307.0 8:7524.0 9:5986.0 
1.0 1:5984.0 2:7524.0 3:24.0 4:8762.0 5:4588.0 6:6355.0 7:2764.0 8:12187.0 9:3547.0 10:8671.0 11:24.0 12:1949.0 13:5986.0 
0.31977465080574685 1:5984.0 2:1949.0 3:24.0 4:4424.0 5:8402.0 6:8748.0 7:5986.0 
1.0 1:5984.0 2:1949.0 3:24.0 4:8762.0 5:4588.0 6:6355.0 7:2764.0 8:12187.0 9:3547.0 10:8671.0 11:24.0 12:1949.0 13:5986.0 
1.0 1:5984.0 2:1708.0 3:13155.0 4:1898.0 5:4588.0 6:8762.0 7:24.0 8:7524.0 9:5986.0 
1.0 1:5984.0 2:7524.0 3:24.0 4:8762.0 5:4588.0 6:6355.0 7:2764.0 8:12187.0 9:3547.0 10:8671.0 11:24.0 12:1949.0 13:5986.0 
0.980955525429758 1:5984.0 2:1949.0 3:24.0 4:4424.0 5:8402.0 6:8748.0 7:5986.0 
1.0 1:5984.0 2:1708.0 3:13155.0 4:1898.0 5:4588.0 6:8762.0 7:24.0 8:1949.0 9:5986.0 
1.0 1:5984.0 2:7524.0 3:6322.0 4:8762.0 5:8244.0 6:1949.0 7:5986.0 
0.7979066610801807 1:5984.0 2:1708.0 3:13136.0 4:1898.0 5:2951.0 6:8762.0 7:8745.0 8:1949.0 9:5986.0 
1.0 1:5984.0 2:8762.0 3:14429.0 4:8762.0 5:2214.0 6:3977.0 7:5986.0 
1.0 1:5984.0 2:1949.0 3:3982.0 4:8762.0 5:2718.0 6:8671.0 7:11777.0 8:8671.0 9:1538.0 10:4046.0 11:5986.0 
0.9469550709616762 1:5984.0 2:1949.0 3:8745.0 4:1708.0 5:3486.0 6:3977.0 7:5986.0 
1.0 1:5984.0 2:1949.0 3:8745.0 4:1708.0 5:3486.0 6:3977.0 7:13049.0 8:1949.0 9:5986.0 
0.7811126679871745 1:5984.0 2:6355.0 3:1073.0 4:8748.0 5:8620.0 6:1949.0 7:5986.0 
1.0 1:5984.0 2:1949.0 3:8620.0 4:13617.0 5:5986.0 
0.3751677446104432 1:5984.0 2:1708.0 3:6647.0 4:1898.0 5:10391.0 6:1949.0 7:5986.0 
1.0 1:5984.0 2:1949.0 3:881.0 4:1949.0 5:5986.0 
1.0 1:5984.0 2:1708.0 3:3837.0 4:4046.0 5:5060.0 6:3977.0 7:6297.0 8:7524.0 9:5986.0 
1.0 1:5984.0 2:7524.0 3:6297.0 4:3977.0 5:5060.0 6:4046.0 7:717.0 8:1949.0 9:5986.0 
0.8291592772869656 1:5984.0 2:1898.0 3:13480.0 4:8032.0 5:5986.0 
1.0 1:5984.0 2:1898.0 3:13480.0 4:8032.0 5:5986.0 
0.38142081299555747 1:5984.0 2:1949.0 3:24.0 4:6787.0 5:8992.0 6:6787.0 7:24.0 8:1949.0 9:5986.0 
1.0 1:5984.0 2:7524.0 3:1312.0 4:8756.0 5:5986.0 
0.9983794544544269 1:5984.0 2:1949.0 3:24.0 4:6787.0 5:8992.0 6:6787.0 7:24.0 8:1949.0 9:5986.0 
1.0 1:5984.0 2:10643.0 3:2945.0 4:2370.0 5:5986.0 
1.0 1:5984.0 2:3977.0 3:4682.0 4:9922.0 5:2945.0 6:2370.0 7:5986.0 
0.9883105722090393 1:5984.0 2:10643.0 3:1632.0 4:1898.0 5:7992.0 6:1949.0 7:5986.0 
0.8751697660261116 1:5984.0 2:8762.0 3:2214.0 4:8762.0 5:5986.0 
1.0 1:5984.0 2:8762.0 3:2214.0 4:8762.0 5:5986.0 
1.0 1:5984.0 2:8762.0 3:2214.0 4:8762.0 5:5986.0 
0.25861090857446534 1:5984.0 2:1708.0 3:4682.0 4:3977.0 5:5986.0 
1.0 1:5984.0 2:1708.0 3:2763.0 4:1708.0 5:9421.0 6:1898.0 7:1307.0 8:8762.0 9:5986.0 
0.3245047831351807 1:5984.0 2:1949.0 3:9103.0 4:1898.0 5:2588.0 6:8748.0 7:7992.0 8:1949.0 9:5986.0 
1.0 1:5984.0 2:1708.0 3:2763.0 4:7524.0 5:5986.0 
1.0 1:5984.0 2:1708.0 3:2763.0 4:1708.0 5:2588.0 6:8748.0 7:7992.0 8:1949.0 9:5986.0 
0.9501951061967315 1:5984.0 2:1949.0 3:9103.0 4:1898.0 5:2588.0 6:8748.0 7:7992.0 8:1949.0 9:5986.0 
0.9819044025297521 1:5984.0 2:8762.0 3:8992.0 4:1708.0 5:10237.0 6:1898.0 7:953.0 8:8762.0 9:5986.0 
1.0 1:5984.0 2:3977.0 3:5908.0 4:8762.0 5:8992.0 6:1708.0 7:10237.0 8:1898.0 9:953.0 10:8762.0 11:5986.0 
1.0 1:5984.0 2:8762.0 3:13225.0 4:8756.0 5:2641.0 6:1898.0 7:1232.0 8:3977.0 9:5986.0 
1.0 1:5984.0 2:8762.0 3:11316.0 4:4046.0 5:5908.0 6:13529.0 7:5908.0 8:8671.0 9:14151.0 10:8762.0 11:8641.0 12:1949.0 13:5986.0 
0.6026467997973892 1:5984.0 2:8762.0 3:11316.0 4:4046.0 5:5908.0 6:13529.0 7:5986.0 
1.0 1:5984.0 2:8762.0 3:11316.0 4:4046.0 5:5908.0 6:13529.0 7:12765.0 8:1949.0 9:5986.0 
1.0 1:5984.0 2:8762.0 3:11316.0 4:4046.0 5:5908.0 6:13529.0 7:5986.0 
1.0 1:5984.0 2:1949.0 3:12765.0 4:13529.0 5:5908.0 6:13529.0 7:5908.0 8:8671.0 9:14151.0 10:8762.0 11:8641.0 12:1949.0 13:5986.0 
1.0 1:5984.0 2:13529.0 3:5908.0 4:13529.0 5:5986.0 
1.0 1:5984.0 2:1949.0 3:12765.0 4:13529.0 5:5908.0 6:13529.0 7:5986.0 
0.4587866333123601 1:5984.0 2:1708.0 3:14072.0 4:8671.0 5:5986.0 
0.7644239468587309 1:5984.0 2:1949.0 3:10868.0 4:8762.0 5:5174.0 6:8762.0 7:5986.0 
1.0 1:5984.0 2:1949.0 3:10868.0 4:8762.0 5:5174.0 6:8762.0 7:5986.0 
0.6851394608369693 1:5984.0 2:1949.0 3:6499.0 4:1949.0 5:5986.0 
1.0 1:5984.0 2:1949.0 3:6499.0 4:4046.0 5:5986.0 
0.9214453233604366 1:5984.0 2:1949.0 3:6499.0 4:1708.0 5:13415.0 6:7034.0 7:3205.0 8:8762.0 9:5986.0 
0.9861632539542623 1:5984.0 2:1949.0 3:6499.0 4:1949.0 5:5986.0 
0.7850391361986018 1:5984.0 2:4046.0 3:6499.0 4:1949.0 5:5986.0 
1.0 1:5984.0 2:4046.0 3:6499.0 4:1708.0 5:13415.0 6:7034.0 7:3205.0 8:8762.0 9:5986.0 
1.0 1:5984.0 2:4046.0 3:6499.0 4:1949.0 5:5986.0 
1.0 1:5984.0 2:7524.0 3:1307.0 4:1898.0 5:9488.0 6:8032.0 7:5986.0 
1.0 1:5984.0 2:1949.0 3:9299.0 4:1708.0 5:10337.0 6:7034.0 7:1737.0 8:7524.0 9:5986.0 
1.0 1:5984.0 2:6174.0 3:13092.0 4:1898.0 5:10337.0 6:7034.0 7:1737.0 8:7524.0 9:5986.0 
1.0 1:5984.0 2:1949.0 3:9299.0 4:1708.0 5:10337.0 6:7034.0 7:5239.0 8:1949.0 9:5986.0 
1.0 1:5984.0 2:6174.0 3:13092.0 4:1898.0 5:10337.0 6:7034.0 7:5239.0 8:1949.0 9:5986.0 
0.8480734056168754 1:5984.0 2:1949.0 3:717.0 4:8748.0 5:11712.0 6:1949.0 7:5986.0 
0.8423675416899598 1:5984.0 2:1949.0 3:11712.0 4:8748.0 5:717.0 6:13529.0 7:2763.0 8:8762.0 9:493.0 10:1708.0 11:12851.0 12:8762.0 13:3205.0 14:8032.0 15:5986.0 
0.9531318616979182 1:5984.0 2:1949.0 3:11712.0 4:8748.0 5:717.0 6:13529.0 7:2763.0 8:8762.0 9:493.0 10:1708.0 11:12851.0 12:8762.0 13:3205.0 14:8032.0 15:5986.0 
1.0 1:5984.0 2:1949.0 3:13005.0 4:8671.0 5:6908.0 6:6355.0 7:5986.0 
0.5741856984057381 1:5984.0 2:1708.0 3:3339.0 4:8748.0 5:11858.0 6:1949.0 7:5986.0 
1.0 1:5984.0 2:1708.0 3:3339.0 4:8748.0 5:2674.0 6:8762.0 7:8745.0 8:1949.0 9:5986.0 
1.0 1:5984.0 2:4046.0 3:25.0 4:4046.0 5:5986.0 
0.8301558348607725 1:5984.0 2:13529.0 3:12919.0 4:10643.0 5:8757.0 6:3397.0 7:5986.0 
1.0 1:5984.0 2:1949.0 3:12919.0 4:13529.0 5:5986.0 
1.0 1:5984.0 2:1949.0 3:5908.0 4:13529.0 5:12919.0 6:10643.0 7:8757.0 8:3397.0 9:5986.0 
1.0 1:5984.0 2:1949.0 3:12919.0 4:13529.0 5:5908.0 6:1949.0 7:5986.0 
0.983371940874287 1:5984.0 2:13529.0 3:12919.0 4:10643.0 5:8757.0 6:3397.0 7:5986.0 
1.0 1:5984.0 2:1949.0 3:12919.0 4:13529.0 5:5986.0 
1.0 1:5984.0 2:1949.0 3:24.0 4:13529.0 5:12919.0 6:10643.0 7:8757.0 8:3397.0 9:5986.0 
1.0 1:5984.0 2:1949.0 3:12919.0 4:13529.0 5:24.0 6:1949.0 7:5986.0 
1.0 1:5984.0 2:7524.0 3:5060.0 4:7524.0 5:5986.0 
0.9452835256525504 1:5984.0 2:7524.0 3:9222.0 4:1898.0 5:23.0 6:8762.0 7:24.0 8:1949.0 9:5986.0 
1.0 1:5984.0 2:7524.0 3:9222.0 4:1898.0 5:23.0 6:8762.0 7:24.0 8:1949.0 9:5986.0 
0.3969010614275677 1:5984.0 2:7524.0 3:2763.0 4:6787.0 5:2214.0 6:6787.0 7:14050.0 8:1949.0 9:5986.0 
0.9992925413325968 1:5984.0 2:7524.0 3:2763.0 4:6787.0 5:2214.0 6:6787.0 7:14050.0 8:1949.0 9:5986.0 
0.49510235411129727 1:5984.0 2:1949.0 3:4075.0 4:8762.0 5:13411.0 6:1898.0 7:1232.0 8:1898.0 9:8514.0 10:1708.0 11:12711.0 12:1898.0 13:8238.0 14:8762.0 15:5986.0 
0.9982259025475027 1:5984.0 2:1949.0 3:4075.0 4:8762.0 5:13411.0 6:1898.0 7:1232.0 8:1898.0 9:8514.0 10:1708.0 11:12711.0 12:1898.0 13:8238.0 14:8762.0 15:5986.0 
1.0 1:5984.0 2:1949.0 3:4075.0 4:8762.0 5:13411.0 6:1898.0 7:1232.0 8:1898.0 9:8514.0 10:1708.0 11:12711.0 12:1898.0 13:8238.0 14:8762.0 15:5908.0 16:12683.0 17:5986.0 
0.6366087433996905 1:5984.0 2:1949.0 3:4075.0 4:8762.0 5:13411.0 6:1898.0 7:1232.0 8:1898.0 9:6869.0 10:1708.0 11:12711.0 12:1898.0 13:5986.0 
0.9804179127515363 1:5984.0 2:1949.0 3:4075.0 4:8762.0 5:13411.0 6:1898.0 7:1232.0 8:1898.0 9:6869.0 10:1708.0 11:12711.0 12:1898.0 13:5986.0 
1.0 1:5984.0 2:8762.0 3:2214.0 4:8762.0 5:5986.0 
1.0 1:5984.0 2:1708.0 3:2093.0 4:1708.0 5:5986.0 
1.0 1:5984.0 2:8762.0 3:12084.0 4:1708.0 5:5864.0 6:1898.0 7:7983.0 8:7034.0 9:6322.0 10:8762.0 11:14115.0 12:7524.0 13:5986.0 
1.0 1:5984.0 2:1949.0 3:9222.0 4:1708.0 5:5864.0 6:1898.0 7:7389.0 8:8756.0 9:5986.0 
1.0 1:5984.0 2:1949.0 3:9222.0 4:1898.0 5:11867.0 6:7034.0 7:13225.0 8:7668.0 9:2584.0 10:3130.0 11:5908.0 12:3977.0 13:5986.0 
0.8058109103445843 1:5984.0 2:7034.0 3:5908.0 4:8762.0 5:3031.0 6:1708.0 7:10447.0 8:8748.0 9:8647.0 10:8762.0 11:9222.0 12:1949.0 13:5986.0 
0.9661703196002345 1:5984.0 2:7034.0 3:5908.0 4:8762.0 5:3031.0 6:1708.0 7:10447.0 8:8748.0 9:8647.0 10:8762.0 11:9222.0 12:1949.0 13:5986.0 
1.0 1:5984.0 2:7524.0 3:14224.0 4:8756.0 5:2641.0 6:1708.0 7:2061.0 8:11025.0 9:8647.0 10:8762.0 11:13805.0 12:13529.0 13:5986.0 
1.0 1:5984.0 2:6355.0 3:5479.0 4:3130.0 5:2061.0 6:1708.0 7:2641.0 8:8756.0 9:14224.0 10:7524.0 11:5986.0 
1.0 1:5984.0 2:1949.0 3:6074.0 4:8762.0 5:5880.0 6:8762.0 7:15012.0 8:1708.0 9:9886.0 10:8505.0 11:13155.0 12:1898.0 13:13621.0 14:8762.0 15:5908.0 16:1949.0 17:5986.0 
0.6037834664331849 1:5984.0 2:1708.0 3:10094.0 4:8671.0 5:5986.0 
1.0 1:5984.0 2:1949.0 3:3205.0 4:4424.0 5:6639.0 6:12187.0 7:5986.0 
1.0 1:5984.0 2:7524.0 3:5908.0 4:8762.0 5:3205.0 6:1708.0 7:23.0 8:1898.0 9:7441.0 10:6174.0 11:5986.0 
1.0 1:5984.0 2:8762.0 3:2274.0 4:8671.0 5:14366.0 6:8032.0 7:5986.0 
0.5995005148405687 1:5984.0 2:1708.0 3:2068.0 4:1898.0 5:7331.0 6:8762.0 7:5986.0 
1.0 1:5984.0 2:1949.0 3:9299.0 4:13529.0 5:5908.0 6:1708.0 7:2068.0 8:1898.0 9:7331.0 10:8762.0 11:5986.0 
1.0 1:5984.0 2:1708.0 3:2068.0 4:1898.0 5:7331.0 6:8762.0 7:5908.0 8:13529.0 9:10094.0 10:7524.0 11:5986.0 
1.0 1:5984.0 2:1708.0 3:2068.0 4:1898.0 5:1660.0 6:8671.0 7:622.0 8:1949.0 9:5986.0 
1.0 1:5984.0 2:1949.0 3:9299.0 4:13529.0 5:5908.0 6:1708.0 7:2068.0 8:1898.0 9:7331.0 10:8762.0 11:5908.0 12:13529.0 13:10094.0 14:7524.0 15:5986.0 
0.6557613418850645 1:5984.0 2:7524.0 3:10094.0 4:8671.0 5:5986.0 
1.0 1:5984.0 2:1949.0 3:9299.0 4:13529.0 5:5908.0 6:1708.0 7:2068.0 8:1898.0 9:1660.0 10:8671.0 11:622.0 12:1949.0 13:5986.0 
0.2775936005589021 1:5984.0 2:7524.0 3:2763.0 4:13529.0 5:5986.0 
0.6637380946183498 1:5984.0 2:1949.0 3:8745.0 4:8762.0 5:14115.0 6:1898.0 7:6013.0 8:3647.0 9:6451.0 10:8756.0 11:5986.0 
0.9651604846435771 1:5984.0 2:13529.0 3:2763.0 4:1708.0 5:6013.0 6:3647.0 7:6451.0 8:8756.0 9:5986.0 
1.0 1:5984.0 2:13529.0 3:2763.0 4:1708.0 5:6013.0 6:1898.0 7:14115.0 8:8762.0 9:8745.0 10:1949.0 11:5986.0 
0.9781853041856065 1:5984.0 2:1949.0 3:8745.0 4:8762.0 5:14115.0 6:1898.0 7:6013.0 8:3647.0 9:6451.0 10:8756.0 11:5986.0 
1.0 1:5984.0 2:13529.0 3:2763.0 4:1708.0 5:6013.0 6:3647.0 7:6451.0 8:8756.0 9:5986.0 
1.0 1:5984.0 2:1949.0 3:5908.0 4:1708.0 5:10299.0 6:8756.0 7:622.0 8:1949.0 9:5986.0 
0.8560351591655221 1:5984.0 2:1708.0 3:10299.0 4:8756.0 5:622.0 6:1949.0 7:5986.0 
1.0 1:5984.0 2:8762.0 3:5255.0 4:8671.0 5:202.0 6:7524.0 7:5986.0 
1.0 1:5984.0 2:1708.0 3:1456.0 4:8762.0 5:2763.0 6:7524.0 7:5986.0 
1.0 1:5984.0 2:1708.0 3:6338.0 4:1898.0 5:5986.0 
1.0 1:5984.0 2:1708.0 3:10625.0 4:8505.0 5:8745.0 6:1708.0 7:5986.0 
1.0 1:5984.0 2:8762.0 3:6096.0 4:1708.0 5:14962.0 6:3977.0 7:9222.0 8:1949.0 9:5986.0 
0.20682449430770466 1:5984.0 2:8762.0 3:8244.0 4:6355.0 5:10722.0 6:12187.0 7:5986.0 
0.98827765874019 1:5984.0 2:8762.0 3:8244.0 4:6355.0 5:10722.0 6:12187.0 7:5986.0 
1.0 1:5984.0 2:8762.0 3:6096.0 4:8762.0 5:9044.0 6:3977.0 7:5986.0 
1.0 1:5984.0 2:8762.0 3:12297.0 4:1898.0 5:8831.0 6:3998.0 7:5986.0 
0.9088084340371534 1:5984.0 2:1708.0 3:6639.0 4:1898.0 5:5908.0 6:7524.0 7:5986.0 
1.0 1:5984.0 2:1949.0 3:3210.0 4:1949.0 5:5986.0 
1.0 1:5984.0 2:1708.0 3:1875.0 4:9922.0 5:3967.0 6:1708.0 7:3031.0 8:8762.0 9:5986.0 
1.0 1:5984.0 2:8748.0 3:1825.0 4:7524.0 5:5908.0 6:1708.0 7:1875.0 8:9922.0 9:3967.0 10:1708.0 11:3031.0 12:8762.0 13:5986.0 
1.0 1:5984.0 2:8748.0 3:1825.0 4:7524.0 5:5908.0 6:1708.0 7:1875.0 8:8505.0 9:14835.0 10:3397.0 11:1825.0 12:9922.0 13:5908.0 14:3647.0 15:4892.0 16:8671.0 17:14529.0 18:7524.0 19:5986.0 
1.0 1:5984.0 2:1708.0 3:1875.0 4:8505.0 5:14835.0 6:3397.0 7:1825.0 8:9922.0 9:5908.0 10:3647.0 11:4892.0 12:8671.0 13:14529.0 14:7524.0 15:5986.0 
1.0 1:5984.0 2:8748.0 3:1825.0 4:7524.0 5:5908.0 6:1708.0 7:1875.0 8:8505.0 9:14835.0 10:3397.0 11:1825.0 12:9922.0 13:5986.0 
1.0 1:5984.0 2:1708.0 3:1875.0 4:8505.0 5:14835.0 6:3397.0 7:1825.0 8:9922.0 9:5986.0 
1.0 1:5984.0 2:1708.0 3:1825.0 4:9922.0 5:13136.0 6:3130.0 7:4124.0 8:3130.0 9:9095.0 10:1708.0 11:24.0 12:1949.0 13:5986.0 
1.0 1:5984.0 2:8762.0 3:13255.0 4:1708.0 5:15010.0 6:8748.0 7:5490.0 8:8671.0 9:5986.0 
0.3662762497018343 1:5984.0 2:1708.0 3:1232.0 4:1898.0 5:5899.0 6:8671.0 7:622.0 8:8762.0 9:5986.0 
0.9862774790072933 1:5984.0 2:1708.0 3:1232.0 4:1898.0 5:5899.0 6:8671.0 7:622.0 8:8762.0 9:5986.0 
1.0 1:5984.0 2:6355.0 3:14072.0 4:6355.0 5:5986.0 
1.0 1:5984.0 2:6355.0 3:14072.0 4:6355.0 5:5986.0 
1.0 1:5984.0 2:7524.0 3:5908.0 4:6355.0 5:14072.0 6:6355.0 7:5986.0 
1.0 1:5984.0 2:6355.0 3:14072.0 4:6355.0 5:5986.0 
1.0 1:5984.0 2:7524.0 3:5908.0 4:6355.0 5:14072.0 6:6355.0 7:5986.0 
0.48108267121763865 1:5984.0 2:8507.0 3:14072.0 4:6355.0 5:5986.0 
0.9371578635386598 1:5984.0 2:8507.0 3:14072.0 4:6355.0 5:5986.0 
0.3657516686378088 1:5984.0 2:1708.0 3:1951.0 4:1898.0 5:5986.0 
1.0 1:5984.0 2:8507.0 3:1951.0 4:1898.0 5:5986.0 
0.2811646105298421 1:5984.0 2:1949.0 3:24.0 4:1708.0 5:10734.0 6:1898.0 7:6911.0 8:7524.0 9:5986.0 
0.9211241540883439 1:5984.0 2:1949.0 3:24.0 4:1708.0 5:10734.0 6:1898.0 7:6911.0 8:7524.0 9:5986.0 
0.12083254220572315 1:5984.0 2:1949.0 3:24.0 4:1708.0 5:1977.0 6:1898.0 7:5986.0 
1.0 1:5984.0 2:1949.0 3:24.0 4:1708.0 5:1977.0 6:1898.0 7:5986.0 
1.0 1:5984.0 2:8762.0 3:14115.0 4:1708.0 5:9587.0 6:3299.0 7:14151.0 8:1898.0 9:5463.0 10:1949.0 11:5986.0 
1.0 1:5984.0 2:1708.0 3:9340.0 4:1898.0 5:5899.0 6:8671.0 7:4401.0 8:8671.0 9:14151.0 10:8762.0 11:10844.0 12:1949.0 13:5986.0 
1.0 1:5984.0 2:8762.0 3:10805.0 4:1708.0 5:9844.0 6:8748.0 7:4588.0 8:8762.0 9:5986.0 
0.5810298116620253 1:5984.0 2:6355.0 3:1808.0 4:9922.0 5:10119.0 6:3977.0 7:5986.0 
1.0 1:5984.0 2:6355.0 3:1808.0 4:9922.0 5:10119.0 6:3977.0 7:5986.0 
1.0 1:5984.0 2:6355.0 3:1808.0 4:9922.0 5:10119.0 6:3977.0 7:6637.0 8:8762.0 9:8745.0 10:1949.0 11:5986.0 
1.0 1:5984.0 2:8748.0 3:11777.0 4:3130.0 5:1808.0 6:6355.0 7:5986.0 
1.0 1:5984.0 2:8748.0 3:11777.0 4:3130.0 5:1808.0 6:3130.0 7:6912.0 8:1708.0 9:5986.0 
0.5602833154942309 1:5984.0 2:1949.0 3:24.0 4:1708.0 5:611.0 6:9922.0 7:5908.0 8:1898.0 9:6911.0 10:7524.0 11:5986.0 
0.997170118224838 1:5984.0 2:1949.0 3:24.0 4:1708.0 5:611.0 6:9922.0 7:5908.0 8:1898.0 9:6911.0 10:7524.0 11:5986.0 
1.0 1:5984.0 2:1949.0 3:24.0 4:1708.0 5:611.0 6:9922.0 7:5986.0 
1.0 1:5984.0 2:3977.0 3:488.0 4:9922.0 5:908.0 6:4424.0 7:24.0 8:1708.0 9:1825.0 10:9922.0 11:5986.0 
1.0 1:5984.0 2:1949.0 3:24.0 4:4424.0 5:908.0 6:9922.0 7:488.0 8:3977.0 9:5986.0 
1.0 1:5984.0 2:1949.0 3:24.0 4:1708.0 5:1825.0 6:9922.0 7:5986.0 
0.6163698748725102 1:5984.0 2:1708.0 3:8330.0 4:1898.0 5:5986.0 
1.0 1:5984.0 2:8762.0 3:6322.0 4:8762.0 5:8792.0 6:1708.0 7:14108.0 8:8032.0 9:5986.0 
1.0 1:5984.0 2:8762.0 3:14108.0 4:7034.0 5:2453.0 6:6355.0 7:6330.0 8:12187.0 9:511.0 10:8762.0 11:5986.0 
1.0 1:5984.0 2:8762.0 3:2148.0 4:8762.0 5:5986.0 
1.0 1:5984.0 2:8762.0 3:2148.0 4:8762.0 5:5986.0 
1.0 1:5984.0 2:8762.0 3:2148.0 4:8762.0 5:5986.0 
1.0 1:5984.0 2:10643.0 3:11353.0 4:1898.0 5:8244.0 6:1949.0 7:5986.0 
0.5684481709269203 1:5984.0 2:1708.0 3:3319.0 4:1898.0 5:5986.0 
1.0 1:5984.0 2:1898.0 3:3319.0 4:9922.0 5:11353.0 6:1898.0 7:8244.0 8:1949.0 9:5986.0 
1.0 1:5984.0 2:8762.0 3:2453.0 4:10643.0 5:12152.0 6:1898.0 7:3916.0 8:1949.0 9:5986.0 
1.0 1:5984.0 2:7524.0 3:2763.0 4:13529.0 5:5986.0 
1.0 1:5984.0 2:13529.0 3:2763.0 4:8762.0 5:5899.0 6:8671.0 7:6322.0 8:8762.0 9:8244.0 10:1949.0 11:5986.0 
1.0 1:5984.0 2:8762.0 3:3738.0 4:1708.0 5:11709.0 6:1898.0 7:2042.0 8:8762.0 9:5908.0 10:8762.0 11:5986.0 
0.8990152344476721 1:5984.0 2:8762.0 3:3738.0 4:1708.0 5:11709.0 6:1898.0 7:2042.0 8:8762.0 9:5986.0 
1.0 1:5984.0 2:1949.0 3:5469.0 4:12683.0 5:10674.0 6:8762.0 7:5986.0 
1.0 1:5984.0 2:8762.0 3:12916.0 4:1708.0 5:9570.0 6:8762.0 7:12787.0 8:7524.0 9:5986.0 
1.0 1:5984.0 2:7524.0 3:12765.0 4:8762.0 5:5099.0 6:1708.0 7:6409.0 8:1898.0 9:5899.0 10:8762.0 11:5986.0 
1.0 1:5984.0 2:1949.0 3:12765.0 4:8762.0 5:5099.0 6:1708.0 7:6409.0 8:1898.0 9:5899.0 10:8762.0 11:5986.0 
1.0 1:5984.0 2:8762.0 3:5899.0 4:1898.0 5:6409.0 6:3130.0 7:13979.0 8:8748.0 9:5986.0 
1.0 1:5984.0 2:8762.0 3:5899.0 4:1898.0 5:6409.0 6:3130.0 7:13979.0 8:8748.0 9:5469.0 10:8762.0 11:5986.0 
0.5153204393336529 1:5984.0 2:7524.0 3:12765.0 4:1949.0 5:5986.0 
1.0 1:5984.0 2:1708.0 3:12084.0 4:3299.0 5:10363.0 6:1898.0 7:13411.0 8:4424.0 9:10877.0 10:1898.0 11:5986.0 
1.0 1:5984.0 2:10643.0 3:13187.0 4:8025.0 5:2763.0 6:4424.0 7:8859.0 8:1898.0 9:15070.0 10:8762.0 11:7026.0 12:1949.0 13:5986.0 
1.0 1:5984.0 2:1949.0 3:7026.0 4:8762.0 5:15070.0 6:1898.0 7:8859.0 8:8748.0 9:8745.0 10:1949.0 11:5986.0 
1.0 1:5984.0 2:10643.0 3:13187.0 4:8025.0 5:2763.0 6:4424.0 7:8859.0 8:8748.0 9:8745.0 10:1949.0 11:5986.0 
0.5150365300180575 1:5984.0 2:1708.0 3:8611.0 4:8748.0 5:5986.0 
1.0 1:5984.0 2:1708.0 3:8611.0 4:9922.0 5:5986.0 
0.926093849659384 1:5984.0 2:8762.0 3:4093.0 4:8762.0 5:5986.0 
1.0 1:5984.0 2:8762.0 3:4093.0 4:8762.0 5:5986.0 
0.9991241487522611 1:5984.0 2:8762.0 3:4093.0 4:8762.0 5:5986.0 
0.9132291883217685 1:5984.0 2:8762.0 3:5690.0 4:8762.0 5:5986.0 
1.0 1:5984.0 2:8762.0 3:5690.0 4:8762.0 5:5986.0 
0.9984071551782268 1:5984.0 2:8762.0 3:5690.0 4:8762.0 5:5986.0 
0.9806298765573895 1:5984.0 2:1708.0 3:10734.0 4:1898.0 5:6911.0 6:8762.0 7:904.0 8:1949.0 9:5986.0 
0.5957546159302608 1:5984.0 2:1949.0 3:8745.0 4:1898.0 5:12056.0 6:9922.0 7:6325.0 8:4424.0 9:2318.0 10:6355.0 11:10299.0 12:2441.0 13:5908.0 14:13529.0 15:5986.0 
0.9952176330158273 1:5984.0 2:1949.0 3:8745.0 4:1898.0 5:12056.0 6:9922.0 7:6325.0 8:4424.0 9:2318.0 10:6355.0 11:10299.0 12:2441.0 13:5908.0 14:13529.0 15:5986.0 
1.0 1:5984.0 2:1949.0 3:8745.0 4:1898.0 5:12056.0 6:9922.0 7:6325.0 8:4424.0 9:2318.0 10:6355.0 11:10299.0 12:2441.0 13:5986.0 
0.552739811530592 1:5984.0 2:7524.0 3:14050.0 4:2441.0 5:5986.0 
1.0 1:5984.0 2:7524.0 3:14050.0 4:2441.0 5:5986.0 
1.0 1:5984.0 2:8762.0 3:8189.0 4:1898.0 5:4431.0 6:4424.0 7:14215.0 8:1708.0 9:10857.0 10:1898.0 11:5078.0 12:7524.0 13:5986.0 
1.0 1:5984.0 2:12187.0 3:8542.0 4:9922.0 5:12894.0 6:8505.0 7:13979.0 8:8671.0 9:12070.0 10:1949.0 11:5986.0 
1.0 1:5984.0 2:1949.0 3:12787.0 4:1708.0 5:3097.0 6:3998.0 7:13108.0 8:4424.0 9:8542.0 10:9922.0 11:12894.0 12:8505.0 13:13979.0 14:8671.0 15:12070.0 16:1949.0 17:5986.0 
1.0 1:5984.0 2:1708.0 3:4665.0 4:8505.0 5:11484.0 6:3130.0 7:963.0 8:6355.0 9:5908.0 10:1949.0 11:5986.0 
1.0 1:5984.0 2:1949.0 3:12787.0 4:8748.0 5:1825.0 6:3647.0 7:4665.0 8:8505.0 9:11484.0 10:3130.0 11:963.0 12:6355.0 13:5908.0 14:1949.0 15:5986.0 
0.6749962461787613 1:5984.0 2:1949.0 3:5908.0 4:6355.0 5:963.0 6:7034.0 7:1825.0 8:1949.0 9:5986.0 
0.9980520516152945 1:5984.0 2:1949.0 3:5908.0 4:6355.0 5:963.0 6:7034.0 7:1825.0 8:1949.0 9:5986.0 
1.0 1:5984.0 2:7524.0 3:5078.0 4:1898.0 5:4665.0 6:8505.0 7:11484.0 8:3130.0 9:963.0 10:6355.0 11:5908.0 12:1949.0 13:5986.0 
0.770485404741617 1:5984.0 2:1708.0 3:4665.0 4:1898.0 5:5078.0 6:7524.0 7:5986.0 
0.078741102730205 1:5984.0 2:10643.0 3:8521.0 4:3977.0 5:3982.0 6:1949.0 7:5986.0 
1.0 1:5984.0 2:4620.0 3:5908.0 4:10643.0 5:8521.0 6:3977.0 7:3982.0 8:1949.0 9:5986.0 
1.0 1:5984.0 2:10643.0 3:8521.0 4:3977.0 5:3982.0 6:1949.0 7:5986.0 
1.0 1:5984.0 2:7524.0 3:11712.0 4:1898.0 5:11353.0 6:8671.0 7:5548.0 8:7524.0 9:5986.0 
0.11141264143360238 1:5984.0 2:8762.0 3:3738.0 4:1708.0 5:11353.0 6:1898.0 7:11712.0 8:7524.0 9:5986.0 
0.9960347039790154 1:5984.0 2:8762.0 3:3738.0 4:1708.0 5:11353.0 6:1898.0 7:11712.0 8:7524.0 9:5986.0 
1.0 1:5984.0 2:8762.0 3:9102.0 4:1708.0 5:14108.0 6:8032.0 7:5986.0 
0.5260555130922926 1:5984.0 2:8762.0 3:5726.0 4:1708.0 5:5060.0 6:2577.0 7:13480.0 8:1898.0 9:14050.0 10:10216.0 11:5986.0 
0.9975534273469918 1:5984.0 2:8762.0 3:5726.0 4:1708.0 5:5060.0 6:2577.0 7:13480.0 8:1898.0 9:14050.0 10:10216.0 11:5986.0 
1.0 1:5984.0 2:8762.0 3:5726.0 4:1708.0 5:5060.0 6:3130.0 7:4682.0 8:3977.0 9:8745.0 10:1949.0 11:5986.0 
0.5944033528362627 1:5984.0 2:7524.0 3:8620.0 4:3977.0 5:5060.0 6:2577.0 7:13480.0 8:1898.0 9:14050.0 10:10216.0 11:5986.0 
0.992295875950938 1:5984.0 2:7524.0 3:8620.0 4:3977.0 5:5060.0 6:2577.0 7:13480.0 8:1898.0 9:14050.0 10:10216.0 11:5986.0 
1.0 1:5984.0 2:6355.0 3:10213.0 4:3977.0 5:8745.0 6:1949.0 7:5986.0 
1.0 1:5984.0 2:8756.0 3:8051.0 4:8756.0 5:12765.0 6:3977.0 7:5986.0 
1.0 1:5984.0 2:8671.0 3:10746.0 4:4046.0 5:5986.0 
1.0 1:5984.0 2:8671.0 3:10746.0 4:4046.0 5:5986.0 
1.0 1:5984.0 2:8762.0 3:4018.0 4:1708.0 5:11240.0 6:8505.0 7:13699.0 8:1898.0 9:14115.0 10:1949.0 11:5986.0 
1.0 1:5984.0 2:8762.0 3:4018.0 4:8762.0 5:5986.0 
1.0 1:5984.0 2:8762.0 3:14923.0 4:1708.0 5:14277.0 6:1898.0 7:5986.0 
1.0 1:5984.0 2:8762.0 3:14923.0 4:1708.0 5:14277.0 6:1898.0 7:5986.0 
0.6781213887224502 1:5984.0 2:8671.0 3:9562.0 4:13529.0 5:7499.0 6:1949.0 7:5986.0 
0.5741713295687056 1:5984.0 2:8671.0 3:9562.0 4:1708.0 5:12278.0 6:1898.0 7:2650.0 8:13529.0 9:8620.0 10:1949.0 11:5986.0 
0.9984250420720694 1:5984.0 2:8671.0 3:9562.0 4:13529.0 5:7499.0 6:1949.0 7:5986.0 
0.9987323099754324 1:5984.0 2:8671.0 3:9562.0 4:1708.0 5:12278.0 6:1898.0 7:2650.0 8:13529.0 9:8620.0 10:1949.0 11:5986.0 
1.0 1:5984.0 2:1949.0 3:5828.0 4:8762.0 5:4491.0 6:1898.0 7:2584.0 8:8509.0 9:9562.0 10:1708.0 11:12468.0 12:3397.0 13:1825.0 14:8748.0 15:5986.0 
1.0 1:5984.0 2:1949.0 3:2763.0 4:1708.0 5:1232.0 6:1898.0 7:1307.0 8:1708.0 9:6712.0 10:1898.0 11:5986.0 
0.5483787991339283 1:5984.0 2:1708.0 3:9909.0 4:7034.0 5:5986.0 
1.0 1:5984.0 2:1708.0 3:6912.0 4:8748.0 5:6910.0 6:8762.0 7:5986.0 
1.0 1:5984.0 2:1708.0 3:9909.0 4:7034.0 5:5986.0 
1.0 1:5984.0 2:1949.0 3:5908.0 4:8762.0 5:3205.0 6:1708.0 7:24.0 8:8032.0 9:4759.0 10:1949.0 11:5986.0 
1.0 1:5984.0 2:1949.0 3:5908.0 4:8762.0 5:3205.0 6:1708.0 7:6330.0 8:8025.0 9:1897.0 10:7524.0 11:5986.0 
1.0 1:5984.0 2:1949.0 3:24.0 4:8762.0 5:5174.0 6:1898.0 7:6330.0 8:8025.0 9:1897.0 10:7524.0 11:5986.0 
1.0 1:5984.0 2:1949.0 3:24.0 4:1949.0 5:5986.0 
1.0 1:5984.0 2:1949.0 3:4759.0 4:8032.0 5:24.0 6:12104.0 7:6330.0 8:8025.0 9:1897.0 10:7524.0 11:5986.0 
0.15176959046793673 1:5984.0 2:13529.0 3:5908.0 4:10216.0 5:13228.0 6:8762.0 7:7849.0 8:1898.0 9:2448.0 10:4424.0 11:10868.0 12:8762.0 13:6585.0 14:1708.0 15:2068.0 16:3397.0 17:5986.0 
0.8266340390494544 1:5984.0 2:10216.0 3:13228.0 4:8762.0 5:7849.0 6:1898.0 7:2448.0 8:4424.0 9:10868.0 10:8762.0 11:6585.0 12:1708.0 13:2068.0 14:3397.0 15:5986.0 
0.9943071592747725 1:5984.0 2:13529.0 3:5908.0 4:10216.0 5:13228.0 6:8762.0 7:7849.0 8:1898.0 9:2448.0 10:4424.0 11:10868.0 12:8762.0 13:6585.0 14:1708.0 15:2068.0 16:3397.0 17:5986.0 
1.0 1:5984.0 2:1949.0 3:5908.0 4:8762.0 5:5174.0 6:1898.0 7:6330.0 8:8025.0 9:1897.0 10:7524.0 11:5986.0 
1.0 1:5984.0 2:1949.0 3:5908.0 4:1949.0 5:5986.0 
1.0 1:5984.0 2:1949.0 3:5908.0 4:10216.0 5:13228.0 6:8762.0 7:7849.0 8:1898.0 9:2448.0 10:4424.0 11:10868.0 12:8762.0 13:6585.0 14:1708.0 15:2068.0 16:3397.0 17:5986.0 
0.9552182918438237 1:5984.0 2:10216.0 3:13228.0 4:8762.0 5:7849.0 6:1898.0 7:2448.0 8:4424.0 9:10868.0 10:8762.0 11:6585.0 12:1708.0 13:2068.0 14:3397.0 15:5986.0 
1.0 1:5984.0 2:8762.0 3:5174.0 4:1898.0 5:6330.0 6:8025.0 7:1897.0 8:7524.0 9:5986.0 
0.6039241648319977 1:5984.0 2:8762.0 3:14679.0 4:1898.0 5:13610.0 6:9922.0 7:12235.0 8:1898.0 9:13799.0 10:1949.0 11:5986.0 
0.9922605231710093 1:5984.0 2:8762.0 3:14679.0 4:1898.0 5:13610.0 6:9922.0 7:12235.0 8:1898.0 9:13799.0 10:1949.0 11:5986.0 
1.0 1:5984.0 2:10643.0 3:12235.0 4:1898.0 5:13799.0 6:1949.0 7:5986.0 
0.7439648718726086 1:5984.0 2:7034.0 3:3297.0 4:6787.0 5:13710.0 6:6787.0 7:5986.0 
0.9788723712269113 1:5984.0 2:7034.0 3:3297.0 4:6787.0 5:13710.0 6:6787.0 7:5986.0 
1.0 1:5984.0 2:6787.0 3:13710.0 4:8507.0 5:5986.0 
1.0 1:5984.0 2:3977.0 3:953.0 4:3977.0 5:5986.0 
1.0 1:5984.0 2:3977.0 3:953.0 4:3977.0 5:5986.0 
1.0 1:5984.0 2:1949.0 3:8244.0 4:8762.0 5:10399.0 6:1898.0 7:11353.0 8:12586.0 9:953.0 10:3977.0 11:5986.0 
1.0 1:5984.0 2:1949.0 3:8244.0 4:8762.0 5:10399.0 6:1898.0 7:11353.0 8:12586.0 9:953.0 10:3977.0 11:5986.0 
0.8229003437952505 1:5984.0 2:6355.0 3:11777.0 4:8671.0 5:3205.0 6:8762.0 7:5986.0 
0.5004527691393499 1:5984.0 2:1949.0 3:24.0 4:8762.0 5:7389.0 6:1898.0 7:13663.0 8:3299.0 9:9977.0 10:3977.0 11:5908.0 12:4424.0 13:24.0 14:8505.0 15:13230.0 16:1898.0 17:3738.0 18:7524.0 19:5986.0 
0.49602146412940784 1:5984.0 2:1949.0 3:24.0 4:8762.0 5:7389.0 6:1898.0 7:13663.0 8:3299.0 9:9977.0 10:3977.0 11:5908.0 12:7524.0 13:5986.0 
0.8527826838721723 1:5984.0 2:1949.0 3:24.0 4:8762.0 5:7389.0 6:1898.0 7:13663.0 8:3299.0 9:9977.0 10:3977.0 11:5986.0 
0.5053993092196323 1:5984.0 2:1949.0 3:24.0 4:8762.0 5:7389.0 6:1898.0 7:13663.0 8:3299.0 9:9977.0 10:3977.0 11:5908.0 12:4424.0 13:24.0 14:8505.0 15:13230.0 16:1898.0 17:7440.0 18:1949.0 19:5986.0 
1.0 1:5984.0 2:1708.0 3:13663.0 4:3299.0 5:9977.0 6:3977.0 7:5908.0 8:4424.0 9:24.0 10:8505.0 11:13230.0 12:1898.0 13:3738.0 14:7524.0 15:5986.0 
1.0 1:5984.0 2:7524.0 3:5908.0 4:4424.0 5:24.0 6:8505.0 7:13230.0 8:1898.0 9:3738.0 10:7524.0 11:5986.0 
1.0 1:5984.0 2:1949.0 3:24.0 4:8762.0 5:7389.0 6:1898.0 7:13663.0 8:3299.0 9:9977.0 10:3977.0 11:5908.0 12:4424.0 13:24.0 14:8505.0 15:13230.0 16:1898.0 17:3738.0 18:7524.0 19:5986.0 
1.0 1:5984.0 2:1708.0 3:13663.0 4:3299.0 5:9977.0 6:3977.0 7:5908.0 8:7524.0 9:5986.0 
1.0 1:5984.0 2:1708.0 3:13663.0 4:3299.0 5:9977.0 6:3977.0 7:5986.0 
1.0 1:5984.0 2:1708.0 3:13663.0 4:3299.0 5:9977.0 6:3977.0 7:5908.0 8:4424.0 9:24.0 10:8505.0 11:13230.0 12:1898.0 13:7440.0 14:1949.0 15:5986.0 
1.0 1:5984.0 2:7524.0 3:5908.0 4:1708.0 5:24.0 6:8505.0 7:13663.0 8:1708.0 9:5986.0 
1.0 1:5984.0 2:1708.0 3:24.0 4:8505.0 5:13663.0 6:1708.0 7:5986.0 
1.0 1:5984.0 2:7524.0 3:5908.0 4:4424.0 5:24.0 6:8505.0 7:13230.0 8:1898.0 9:7440.0 10:1949.0 11:5986.0 
1.0 1:5984.0 2:1949.0 3:24.0 4:8762.0 5:7389.0 6:1898.0 7:13663.0 8:3299.0 9:9977.0 10:3977.0 11:5908.0 12:7524.0 13:5986.0 
0.9743567675007264 1:5984.0 2:1949.0 3:24.0 4:8762.0 5:7389.0 6:1898.0 7:13663.0 8:3299.0 9:9977.0 10:3977.0 11:5986.0 
0.9978048080501094 1:5984.0 2:1949.0 3:24.0 4:8762.0 5:7389.0 6:1898.0 7:13663.0 8:3299.0 9:9977.0 10:3977.0 11:5908.0 12:4424.0 13:24.0 14:8505.0 15:13230.0 16:1898.0 17:7440.0 18:1949.0 19:5986.0 
0.767856614610953 1:5984.0 2:6355.0 3:1951.0 4:3130.0 5:11854.0 6:247.0 7:3738.0 8:8762.0 9:5986.0 
0.9572770420637754 1:5984.0 2:6355.0 3:1951.0 4:3130.0 5:11854.0 6:247.0 7:3738.0 8:8762.0 9:5986.0 
1.0 1:5984.0 2:1708.0 3:3006.0 4:8748.0 5:5908.0 6:1949.0 7:5986.0 
1.0 1:5984.0 2:1898.0 3:14290.0 4:9922.0 5:5864.0 6:1898.0 7:5908.0 8:8756.0 9:8244.0 10:1949.0 11:5986.0 
1.0 1:5984.0 2:1949.0 3:3958.0 4:6787.0 5:5986.0 
1.0 1:5984.0 2:1708.0 3:14137.0 4:4015.0 5:12598.0 6:11025.0 7:5986.0 
0.581312611632463 1:5984.0 2:1708.0 3:14137.0 4:1898.0 5:10549.0 6:8762.0 7:5986.0 
1.0 1:5984.0 2:1708.0 3:1232.0 4:8021.0 5:6637.0 6:8762.0 7:8745.0 8:1949.0 9:5986.0 
1.0 1:5984.0 2:6355.0 3:6908.0 4:8748.0 5:5986.0 
1.0 1:5984.0 2:13529.0 3:8321.0 4:1708.0 5:13979.0 6:8748.0 7:5986.0 
0.40644215193450933 1:5984.0 2:1949.0 3:3114.0 4:1708.0 5:10476.0 6:8505.0 7:13979.0 8:8748.0 9:5986.0 
0.9988628681188817 1:5984.0 2:1949.0 3:3114.0 4:1708.0 5:10476.0 6:8505.0 7:13979.0 8:8748.0 9:5986.0 
1.0 1:5984.0 2:1949.0 3:3114.0 4:1708.0 5:10476.0 6:8505.0 7:13979.0 8:8748.0 9:5908.0 10:1949.0 11:5986.0 
1.0 1:5984.0 2:13529.0 3:8321.0 4:1708.0 5:13979.0 6:8748.0 7:5908.0 8:1949.0 9:5986.0 
1.0 1:5984.0 2:13529.0 3:8321.0 4:1708.0 5:13979.0 6:8748.0 7:5908.0 8:7524.0 9:5986.0 
0.8931861658563817 1:5984.0 2:1949.0 3:717.0 4:1708.0 5:13979.0 6:8748.0 7:5986.0 
1.0 1:5984.0 2:8748.0 3:13979.0 4:8505.0 5:10476.0 6:4046.0 7:4934.0 8:4046.0 9:13979.0 10:1708.0 11:13978.0 12:13529.0 13:5986.0 
0.9002475527777312 1:5984.0 2:1949.0 3:717.0 4:1708.0 5:13979.0 6:8748.0 7:5908.0 8:1949.0 9:5986.0 
1.0 1:5984.0 2:8748.0 3:13979.0 4:8505.0 5:10476.0 6:4046.0 7:4934.0 8:4046.0 9:13979.0 10:1708.0 11:13978.0 12:13529.0 13:5986.0 
1.0 1:5984.0 2:1949.0 3:5908.0 4:8748.0 5:13979.0 6:8505.0 7:10476.0 8:4046.0 9:4934.0 10:4046.0 11:13979.0 12:1708.0 13:13978.0 14:13529.0 15:5986.0 
1.0 1:5984.0 2:10643.0 3:13622.0 4:1898.0 5:6942.0 6:1949.0 7:5986.0 
1.0 1:5984.0 2:8762.0 3:13313.0 4:1708.0 5:13313.0 6:1708.0 7:13979.0 8:1898.0 9:5986.0 
0.6426515909086653 1:5984.0 2:7524.0 3:7849.0 4:1708.0 5:5908.0 6:8505.0 7:717.0 8:1708.0 9:5986.0 
0.1675590276001944 1:5984.0 2:1708.0 3:717.0 4:1708.0 5:5986.0 
1.0 1:5984.0 2:1708.0 3:717.0 4:1708.0 5:5986.0 
1.0 1:5984.0 2:1949.0 3:717.0 4:1708.0 5:23.0 6:8505.0 7:8266.0 8:1708.0 9:24.0 10:1949.0 11:5986.0 
1.0 1:5984.0 2:1949.0 3:717.0 4:1708.0 5:23.0 6:1708.0 7:5986.0 
0.03517893897418933 1:5984.0 2:1708.0 3:717.0 4:8505.0 5:23.0 6:1708.0 7:717.0 8:1949.0 9:5986.0 
0.9884180174346598 1:5984.0 2:1708.0 3:717.0 4:8505.0 5:23.0 6:1708.0 7:717.0 8:1949.0 9:5986.0 
0.4578621693438336 1:5984.0 2:1708.0 3:717.0 4:8505.0 5:23.0 6:8505.0 7:8266.0 8:1708.0 9:24.0 10:1949.0 11:5986.0 
1.0 1:5984.0 2:1708.0 3:717.0 4:8505.0 5:23.0 6:8505.0 7:8266.0 8:1708.0 9:24.0 10:1949.0 11:5986.0 
1.0 1:5984.0 2:7524.0 3:717.0 4:1708.0 5:23.0 6:8505.0 7:8266.0 8:1708.0 9:24.0 10:1949.0 11:5986.0 
1.0 1:5984.0 2:7524.0 3:7849.0 4:1708.0 5:5908.0 6:8505.0 7:717.0 8:1708.0 9:5986.0 
0.8942770786950361 1:5984.0 2:1708.0 3:717.0 4:8505.0 5:23.0 6:1708.0 7:5986.0 
1.0 1:5984.0 2:7524.0 3:717.0 4:1708.0 5:23.0 6:1708.0 7:5986.0 
1.0 1:5984.0 2:1708.0 3:717.0 4:1708.0 5:5986.0 
0.0278151020429604 1:5984.0 2:1708.0 3:717.0 4:8505.0 5:23.0 6:1708.0 7:717.0 8:7524.0 9:5986.0 
1.0 1:5984.0 2:1708.0 3:717.0 4:8505.0 5:23.0 6:1708.0 7:717.0 8:7524.0 9:5986.0 
0.4871513168873478 1:5984.0 2:1949.0 3:5908.0 4:13529.0 5:14050.0 6:1708.0 7:5672.0 8:7034.0 9:9103.0 10:8762.0 11:24.0 12:1949.0 13:5986.0 
0.38760427438777445 1:5984.0 2:13529.0 3:14050.0 4:1708.0 5:5672.0 6:7034.0 7:9103.0 8:8762.0 9:24.0 10:1949.0 11:5986.0 
1.0 1:5984.0 2:1949.0 3:5908.0 4:13529.0 5:14050.0 6:1708.0 7:5672.0 8:7034.0 9:9103.0 10:8762.0 11:24.0 12:1949.0 13:5986.0 
0.9982357088611507 1:5984.0 2:13529.0 3:14050.0 4:1708.0 5:5672.0 6:7034.0 7:9103.0 8:8762.0 9:24.0 10:1949.0 11:5986.0 
0.804617648728031 1:5984.0 2:10216.0 3:5908.0 4:1708.0 5:11289.0 6:7034.0 7:5908.0 8:7524.0 9:5986.0 
0.9813671841744637 1:5984.0 2:10216.0 3:5908.0 4:1708.0 5:11289.0 6:7034.0 7:5908.0 8:7524.0 9:5986.0 
1.0 1:5984.0 2:8762.0 3:13112.0 4:6355.0 5:8402.0 6:8748.0 7:5986.0 
1.0 1:5984.0 2:6355.0 3:8402.0 4:8748.0 5:5908.0 6:4046.0 7:5986.0 
1.0 1:5984.0 2:6355.0 3:8402.0 4:8748.0 5:5908.0 6:4046.0 7:12765.0 8:1949.0 9:5986.0 
1.0 1:5984.0 2:6355.0 3:10755.0 4:3299.0 5:6309.0 6:1898.0 7:4079.0 8:8762.0 9:8745.0 10:1949.0 11:5986.0 
1.0 1:5984.0 2:1949.0 3:8890.0 4:8762.0 5:14429.0 6:1708.0 7:3250.0 8:8756.0 9:622.0 10:8762.0 11:5986.0 
0.08148894130966758 1:5984.0 2:8762.0 3:14429.0 4:1708.0 5:3250.0 6:8756.0 7:622.0 8:8762.0 9:5986.0 
0.9966065097271669 1:5984.0 2:8762.0 3:14429.0 4:1708.0 5:3250.0 6:8756.0 7:622.0 8:8762.0 9:5986.0 
1.0 1:5984.0 2:8762.0 3:9052.0 4:1708.0 5:6647.0 6:1898.0 7:9730.0 8:8762.0 9:8745.0 10:1949.0 11:5986.0 
1.0 1:5984.0 2:1949.0 3:5908.0 4:4046.0 5:12235.0 6:1898.0 7:1307.0 8:8762.0 9:719.0 10:1949.0 11:5986.0 
1.0 1:5984.0 2:1949.0 3:5908.0 4:4046.0 5:717.0 6:1898.0 7:5986.0 
0.897268484938095 1:5984.0 2:1708.0 3:12235.0 4:1898.0 5:1307.0 6:8762.0 7:719.0 8:1949.0 9:5986.0 
0.40837763697212176 1:5984.0 2:1708.0 3:13027.0 4:1898.0 5:11858.0 6:1949.0 7:5986.0 
0.6442856528434071 1:5984.0 2:1708.0 3:9421.0 4:1898.0 5:6255.0 6:8762.0 7:5986.0 
0.0038738441367749798 1:5984.0 2:1708.0 3:12187.0 4:7524.0 5:5986.0 
1.0 1:5984.0 2:1708.0 3:12187.0 4:7524.0 5:5986.0 
0.8957838640608728 1:5984.0 2:1708.0 3:14137.0 4:3397.0 5:5986.0 
1.0 1:5984.0 2:7524.0 3:1307.0 4:6355.0 5:12414.0 6:3977.0 7:6330.0 8:8762.0 9:5908.0 10:13529.0 11:5986.0 
1.0 1:5984.0 2:13529.0 3:5908.0 4:4046.0 5:717.0 6:8748.0 7:5986.0 
1.0 1:5984.0 2:13529.0 3:5908.0 4:4046.0 5:12765.0 6:7524.0 7:5986.0 
1.0 1:5984.0 2:8762.0 3:13999.0 4:4046.0 5:12414.0 6:3977.0 7:6330.0 8:8762.0 9:5908.0 10:13529.0 11:5986.0 
1.0 1:5984.0 2:7524.0 3:1307.0 4:6355.0 5:12414.0 6:3977.0 7:6330.0 8:8762.0 9:5908.0 10:4046.0 11:717.0 12:1949.0 13:5986.0 
1.0 1:5984.0 2:7524.0 3:1307.0 4:6355.0 5:12414.0 6:3977.0 7:6330.0 8:8762.0 9:5908.0 10:4046.0 11:12765.0 12:7524.0 13:5986.0 
1.0 1:5984.0 2:7524.0 3:13999.0 4:4046.0 5:12414.0 6:6355.0 7:1307.0 8:7524.0 9:5986.0 
1.0 1:5984.0 2:8762.0 3:13999.0 4:4046.0 5:12414.0 6:6355.0 7:1307.0 8:7524.0 9:5986.0 
1.0 1:5984.0 2:7524.0 3:1307.0 4:6355.0 5:12414.0 6:3977.0 7:6330.0 8:8762.0 9:5908.0 10:13529.0 11:5908.0 12:7524.0 13:5986.0 
0.8746376759237616 1:5984.0 2:1949.0 3:717.0 4:8748.0 5:5986.0 
1.0 1:5984.0 2:8748.0 3:717.0 4:4046.0 5:5908.0 6:4046.0 7:12765.0 8:7524.0 9:5986.0 
1.0 1:5984.0 2:8762.0 3:13999.0 4:4046.0 5:12414.0 6:3977.0 7:6330.0 8:8762.0 9:5908.0 10:4046.0 11:717.0 12:8748.0 13:5986.0 
1.0 1:5984.0 2:7524.0 3:5908.0 4:13529.0 5:5908.0 6:4046.0 7:717.0 8:8748.0 9:5986.0 
1.0 1:5984.0 2:1949.0 3:717.0 4:4046.0 5:5908.0 6:4046.0 7:12765.0 8:7524.0 9:5986.0 
1.0 1:5984.0 2:8762.0 3:13999.0 4:4046.0 5:12414.0 6:3977.0 7:6330.0 8:8762.0 9:5908.0 10:4046.0 11:717.0 12:1949.0 13:5986.0 
1.0 1:5984.0 2:8762.0 3:13999.0 4:4046.0 5:12414.0 6:3977.0 7:6330.0 8:8762.0 9:5908.0 10:4046.0 11:12765.0 12:7524.0 13:5986.0 
1.0 1:5984.0 2:7524.0 3:5908.0 4:13529.0 5:5908.0 6:4046.0 7:12765.0 8:7524.0 9:5986.0 
0.8973357073697901 1:5984.0 2:7524.0 3:13999.0 4:8762.0 5:5986.0 
1.0 1:5984.0 2:8762.0 3:13999.0 4:4046.0 5:12414.0 6:3977.0 7:6330.0 8:8762.0 9:5908.0 10:13529.0 11:5908.0 12:7524.0 13:5986.0 
1.0 1:5984.0 2:8762.0 3:10928.0 4:6355.0 5:8635.0 6:12187.0 7:7180.0 8:8762.0 9:5880.0 10:8762.0 11:5986.0 
1.0 1:5984.0 2:8032.0 3:5908.0 4:8762.0 5:10928.0 6:6355.0 7:8635.0 8:12187.0 9:7180.0 10:8762.0 11:5880.0 12:8762.0 13:5986.0 
0.783919411308428 1:5984.0 2:8762.0 3:5908.0 4:1898.0 5:13699.0 6:12683.0 7:13699.0 8:1898.0 9:2214.0 10:8762.0 11:5986.0 
0.9663843221742006 1:5984.0 2:8762.0 3:5908.0 4:1898.0 5:13699.0 6:12683.0 7:13699.0 8:1898.0 9:2214.0 10:8762.0 11:5986.0 
0.7747394981599186 1:5984.0 2:8762.0 3:14319.0 4:8756.0 5:2214.0 6:3977.0 7:5986.0 
0.7038617902516748 1:5984.0 2:8762.0 3:10425.0 4:560.0 5:3100.0 6:1898.0 7:4667.0 8:8756.0 9:11958.0 10:8762.0 11:8745.0 12:1949.0 13:5986.0 
0.9689015348042312 1:5984.0 2:8762.0 3:10425.0 4:560.0 5:3100.0 6:1898.0 7:4667.0 8:8756.0 9:11958.0 10:8762.0 11:8745.0 12:1949.0 13:5986.0 
0.46871923978852187 1:5984.0 2:1949.0 3:8641.0 4:8762.0 5:11958.0 6:4046.0 7:10425.0 8:8032.0 9:5986.0 
1.0 1:5984.0 2:1949.0 3:8641.0 4:8762.0 5:11958.0 6:4046.0 7:10425.0 8:8032.0 9:5986.0 
1.0 1:5984.0 2:8762.0 3:5899.0 4:1898.0 5:5842.0 6:1898.0 7:5986.0 
1.0 1:5984.0 2:8762.0 3:5899.0 4:1898.0 5:5842.0 6:8025.0 7:5908.0 8:8762.0 9:14108.0 10:1949.0 11:5986.0 
0.8663105405189023 1:5984.0 2:8762.0 3:2214.0 4:1898.0 5:13699.0 6:3977.0 7:5986.0 
1.0 1:5984.0 2:1708.0 3:5864.0 4:1708.0 5:5986.0 
1.0 1:5984.0 2:1949.0 3:13979.0 4:1708.0 5:5908.0 6:3130.0 7:14137.0 8:1898.0 9:14108.0 10:1949.0 11:5986.0 
1.0 1:5984.0 2:1949.0 3:14108.0 4:1898.0 5:14137.0 6:11025.0 7:5986.0 
1.0 1:5984.0 2:7034.0 3:11160.0 4:1708.0 5:2395.0 6:3130.0 7:3502.0 8:1898.0 9:5986.0 
0.9747145013748664 1:5984.0 2:8762.0 3:12765.0 4:8762.0 5:5986.0 
0.74698220564519 1:5984.0 2:10643.0 3:13699.0 4:1898.0 5:14108.0 6:1949.0 7:5986.0 
1.0 1:5984.0 2:1949.0 3:12765.0 4:7524.0 5:5986.0 
1.0 1:5984.0 2:1708.0 3:3339.0 4:1898.0 5:3143.0 6:1708.0 7:10857.0 8:1898.0 9:12765.0 10:7524.0 11:5986.0 
1.0 1:5984.0 2:1708.0 3:3339.0 4:1898.0 5:3143.0 6:1708.0 7:10857.0 8:1898.0 9:12765.0 10:1949.0 11:5986.0 
1.0 1:5984.0 2:8762.0 3:1737.0 4:13529.0 5:5986.0 
1.0 1:5984.0 2:8762.0 3:1737.0 4:13529.0 5:5908.0 6:1708.0 7:13780.0 8:1898.0 9:8745.0 10:1949.0 11:5986.0 
1.0 1:5984.0 2:8762.0 3:12084.0 4:7034.0 5:13957.0 6:8671.0 7:202.0 8:7524.0 9:5986.0 
1.0 1:5984.0 2:8762.0 3:7074.0 4:1708.0 5:10715.0 6:1898.0 7:8244.0 8:1949.0 9:5986.0 
1.0 1:5984.0 2:1949.0 3:8244.0 4:1898.0 5:10715.0 6:13765.0 7:5908.0 8:8762.0 9:5986.0 
1.0 1:5984.0 2:1949.0 3:8244.0 4:1898.0 5:10715.0 6:11797.0 7:12765.0 8:4046.0 9:5986.0 
1.0 1:5984.0 2:8762.0 3:5908.0 4:13765.0 5:10715.0 6:11797.0 7:12765.0 8:4046.0 9:5986.0 
1.0 1:5984.0 2:4046.0 3:11709.0 4:1708.0 5:8244.0 6:1949.0 7:5986.0 
0.5611974716934021 1:5984.0 2:1708.0 3:9078.0 4:1898.0 5:5986.0 
0.3300894239365756 1:5984.0 2:8762.0 3:8687.0 4:6355.0 5:8635.0 6:12187.0 7:3738.0 8:1949.0 9:5986.0 
1.0 1:5984.0 2:8762.0 3:8687.0 4:6355.0 5:8635.0 6:12187.0 7:3738.0 8:1949.0 9:5986.0 
1.0 1:5984.0 2:7524.0 3:5908.0 4:8762.0 5:8687.0 6:6355.0 7:8635.0 8:12187.0 9:3738.0 10:1949.0 11:5986.0 
0.9630086672268126 1:5984.0 2:8762.0 3:8687.0 4:6355.0 5:8635.0 6:12187.0 7:3738.0 8:1949.0 9:5986.0 
0.5231184391843111 1:5984.0 2:3977.0 3:13718.0 4:3977.0 5:5986.0 
1.0 1:5984.0 2:3977.0 3:13718.0 4:3977.0 5:5986.0 
0.8971934792421266 1:5984.0 2:3977.0 3:13718.0 4:3977.0 5:5986.0 
1.0 1:5984.0 2:7524.0 3:12851.0 4:7034.0 5:15070.0 6:8762.0 7:8745.0 8:1949.0 9:5986.0 
1.0 1:5984.0 2:8762.0 3:9227.0 4:8762.0 5:2447.0 6:1708.0 7:4825.0 8:1898.0 9:3031.0 10:7034.0 11:4095.0 12:1949.0 13:5986.0 
1.0 1:5984.0 2:8762.0 3:3031.0 4:1898.0 5:2584.0 6:7034.0 7:5986.0 
1.0 1:5984.0 2:7034.0 3:3031.0 4:2370.0 5:2107.0 6:1898.0 7:11858.0 8:1949.0 9:5986.0 
0.673002785270883 1:5984.0 2:4046.0 3:9529.0 4:4046.0 5:5986.0 
1.0 1:5984.0 2:4046.0 3:9529.0 4:4046.0 5:5986.0 
0.9746906267367349 1:5984.0 2:4046.0 3:9529.0 4:4046.0 5:5986.0 
1.0 1:5984.0 2:1949.0 3:14482.0 4:8762.0 5:9730.0 6:7524.0 7:5986.0 
0.35910680129676587 1:5984.0 2:1949.0 3:24.0 4:1708.0 5:14345.0 6:8762.0 7:14482.0 8:1949.0 9:5986.0 
0.9152872293166532 1:5984.0 2:1949.0 3:24.0 4:1708.0 5:14345.0 6:8762.0 7:14482.0 8:1949.0 9:5986.0 
0.9782378880221367 1:5984.0 2:8762.0 3:10362.0 4:1708.0 5:13979.0 6:9922.0 7:5986.0 
0.04430088923213923 1:5984.0 2:1708.0 3:3339.0 4:8748.0 5:12765.0 6:1949.0 7:5986.0 
0.8477924689864358 1:5984.0 2:1708.0 3:3339.0 4:8748.0 5:12765.0 6:7524.0 7:5986.0 
0.8675080826686548 1:5984.0 2:7524.0 3:12765.0 4:1949.0 5:5986.0 
1.0 1:5984.0 2:1949.0 3:13979.0 4:1708.0 5:5908.0 6:3397.0 7:5509.0 8:9922.0 9:10715.0 10:1898.0 11:14108.0 12:1949.0 13:5986.0 
1.0 1:5984.0 2:8762.0 3:741.0 4:8762.0 5:7754.0 6:1708.0 7:14108.0 8:8032.0 9:5986.0 
0.19276976259587122 1:5984.0 2:6174.0 3:10608.0 4:1708.0 5:4075.0 6:3977.0 7:5986.0 
0.9841457040138704 1:5984.0 2:6174.0 3:10608.0 4:1708.0 5:4075.0 6:3977.0 7:5986.0 
0.1761553108541 1:5984.0 2:1708.0 3:8575.0 4:1898.0 5:13411.0 6:8762.0 7:4075.0 8:1949.0 9:5986.0 
0.9563338103037308 1:5984.0 2:1708.0 3:8575.0 4:1898.0 5:13411.0 6:8762.0 7:4075.0 8:1949.0 9:5986.0 
1.0 1:5984.0 2:8762.0 3:12698.0 4:7034.0 5:622.0 6:1949.0 7:5986.0 
0.8045809424941364 1:5984.0 2:8762.0 3:1825.0 4:8748.0 5:5986.0 
1.0 1:5984.0 2:8762.0 3:1825.0 4:8748.0 5:5986.0 
0.7656682818217746 1:5984.0 2:1898.0 3:3240.0 4:9922.0 5:12895.0 6:9922.0 7:14860.0 8:1898.0 9:1593.0 10:8762.0 11:4626.0 12:4424.0 13:8402.0 14:9922.0 15:5986.0 
0.9580173094708746 1:5984.0 2:1898.0 3:3240.0 4:9922.0 5:12895.0 6:9922.0 7:14860.0 8:1898.0 9:1593.0 10:8762.0 11:4626.0 12:4424.0 13:8402.0 14:9922.0 15:5986.0 
0.5885159976233645 1:5984.0 2:1708.0 3:13136.0 4:3977.0 5:5986.0 
1.0 1:5984.0 2:8762.0 3:5699.0 4:1898.0 5:13136.0 6:3977.0 7:5986.0 
1.0 1:5984.0 2:1708.0 3:6330.0 4:8748.0 5:5986.0 
1.0 1:5984.0 2:1708.0 3:9488.0 4:1898.0 5:2214.0 6:6787.0 7:5908.0 8:1949.0 9:5986.0 
0.7619600359229167 1:5984.0 2:6787.0 3:2214.0 4:6787.0 5:5908.0 6:1949.0 7:5986.0 
0.6619335820010377 1:5984.0 2:1708.0 3:9488.0 4:1898.0 5:2214.0 6:6787.0 7:5986.0 
0.05480041906004811 1:5984.0 2:8762.0 3:14597.0 4:1708.0 5:3339.0 6:8351.0 7:2135.0 8:8351.0 9:6307.0 10:8762.0 11:5986.0 
1.0 1:5984.0 2:7524.0 3:3738.0 4:1708.0 5:12468.0 6:1898.0 7:4588.0 8:8762.0 9:5986.0 
0.892277600129122 1:5984.0 2:7524.0 3:6307.0 4:8762.0 5:5986.0 
1.0 1:5984.0 2:8762.0 3:14597.0 4:1708.0 5:3339.0 6:8351.0 7:2135.0 8:8351.0 9:6307.0 10:8762.0 11:5986.0 
1.0 1:5984.0 2:8762.0 3:14597.0 4:1708.0 5:3339.0 6:8351.0 7:2135.0 8:8351.0 9:6307.0 10:8762.0 11:5986.0 
1.0 1:5984.0 2:7524.0 3:14108.0 4:1949.0 5:5986.0 
1.0 1:5984.0 2:8762.0 3:10313.0 4:8671.0 5:14108.0 6:1949.0 7:5986.0 
0.9790206299398129 1:5984.0 2:1949.0 3:6263.0 4:1708.0 5:7097.0 6:1898.0 7:5986.0 
1.0 1:5984.0 2:1898.0 3:7097.0 4:4424.0 5:11486.0 6:8748.0 7:11703.0 8:8762.0 9:8745.0 10:1949.0 11:5986.0 
1.0 1:5984.0 2:1949.0 3:8745.0 4:8762.0 5:11703.0 6:8748.0 7:11486.0 8:3977.0 9:6637.0 10:1708.0 11:7355.0 12:8671.0 13:13799.0 14:8762.0 15:14108.0 16:1949.0 17:5986.0 
1.0 1:5984.0 2:1949.0 3:14108.0 4:1949.0 5:5986.0 
1.0 1:5984.0 2:6174.0 3:10608.0 4:1898.0 5:9042.0 6:3977.0 7:5986.0 
1.0 1:5984.0 2:1949.0 3:5908.0 4:13529.0 5:5986.0 
1.0 1:5984.0 2:1949.0 3:5908.0 4:13529.0 5:5986.0 
1.0 1:5984.0 2:1949.0 3:5908.0 4:1949.0 5:5986.0 
1.0 1:5984.0 2:1949.0 3:5908.0 4:4046.0 5:5986.0 
1.0 1:5984.0 2:1949.0 3:5908.0 4:13529.0 5:5986.0 
0.9577210633849806 1:5984.0 2:1949.0 3:9222.0 4:8748.0 5:14215.0 6:4046.0 7:5986.0 
0.9087621608251703 1:5984.0 2:1949.0 3:9222.0 4:8748.0 5:14215.0 6:4046.0 7:5986.0 
0.9606877206575359 1:5984.0 2:1708.0 3:8980.0 4:7524.0 5:5986.0 
1.0 1:5984.0 2:1708.0 3:8980.0 4:4046.0 5:13388.0 6:3977.0 7:5986.0 
1.0 1:5984.0 2:1949.0 3:2214.0 4:1708.0 5:14782.0 6:8762.0 7:15070.0 8:7524.0 9:5986.0 
1.0 1:5984.0 2:1949.0 3:5286.0 4:1708.0 5:4992.0 6:1898.0 7:5986.0 
1.0 1:5984.0 2:1949.0 3:5245.0 4:8762.0 5:953.0 6:1708.0 7:11251.0 8:3977.0 9:13225.0 10:7668.0 11:8478.0 12:3998.0 13:4414.0 14:7524.0 15:5986.0 
1.0 1:5984.0 2:1949.0 3:5245.0 4:8762.0 5:953.0 6:1708.0 7:11251.0 8:3977.0 9:13225.0 10:7668.0 11:8478.0 12:1898.0 13:5986.0 
0.9674730656841755 1:5984.0 2:1949.0 3:5245.0 4:3977.0 5:5986.0 
1.0 1:5984.0 2:1898.0 3:8478.0 4:3998.0 5:4414.0 6:7524.0 7:5986.0 
1.0 1:5984.0 2:3977.0 3:5245.0 4:8762.0 5:953.0 6:1708.0 7:11251.0 8:3977.0 9:13225.0 10:7668.0 11:8478.0 12:3998.0 13:4414.0 14:7524.0 15:5986.0 
1.0 1:5984.0 2:3977.0 3:5245.0 4:8762.0 5:953.0 6:1708.0 7:11251.0 8:3977.0 9:13225.0 10:7668.0 11:8478.0 12:1898.0 13:5986.0 
1.0 1:5984.0 2:8762.0 3:4252.0 4:3977.0 5:7496.0 6:4046.0 7:12701.0 8:7034.0 9:6322.0 10:8762.0 11:13358.0 12:1949.0 13:5986.0 
1.0 1:5984.0 2:6174.0 3:15159.0 4:14976.0 5:7496.0 6:3977.0 7:4252.0 8:8762.0 9:5986.0 
1.0 1:5984.0 2:4046.0 3:25.0 4:4046.0 5:5986.0 
1.0 1:5984.0 2:4046.0 3:25.0 4:4046.0 5:5986.0 
1.0 1:5984.0 2:1708.0 3:13300.0 4:4015.0 5:13027.0 6:4046.0 7:12414.0 8:3977.0 9:5986.0 
1.0 1:5984.0 2:4046.0 3:25.0 4:4046.0 5:5986.0 
1.0 1:5984.0 2:4046.0 3:25.0 4:4046.0 5:5986.0 
1.0 1:5984.0 2:4046.0 3:25.0 4:4046.0 5:5986.0 
1.0 1:5984.0 2:4046.0 3:25.0 4:4046.0 5:5986.0 
1.0 1:5984.0 2:4046.0 3:25.0 4:4046.0 5:5986.0 
1.0 1:5984.0 2:4046.0 3:25.0 4:4046.0 5:5986.0 
1.0 1:5984.0 2:8762.0 3:5899.0 4:1898.0 5:8120.0 6:8671.0 7:5986.0 
1.0 1:5984.0 2:1949.0 3:8472.0 4:8762.0 5:13108.0 6:8748.0 7:11685.0 8:1708.0 9:2998.0 10:8025.0 11:12787.0 12:7524.0 13:5986.0 
1.0 1:5984.0 2:8032.0 3:1192.0 4:11797.0 5:12711.0 6:1708.0 7:5986.0 
0.39278571786306504 1:5984.0 2:1708.0 3:12817.0 4:1708.0 5:5986.0 
1.0 1:5984.0 2:1708.0 3:12817.0 4:1708.0 5:5986.0 
1.0 1:5984.0 2:1708.0 3:13313.0 4:1708.0 5:5986.0 
0.9027426701559312 1:5984.0 2:1708.0 3:12817.0 4:1708.0 5:5986.0 
1.0 1:5984.0 2:6355.0 3:14072.0 4:6355.0 5:5986.0 
1.0 1:5984.0 2:1708.0 3:2763.0 4:4424.0 5:12414.0 6:3977.0 7:5986.0 
1.0 1:5984.0 2:6355.0 3:1814.0 4:8756.0 5:122.0 6:8762.0 7:12196.0 8:7034.0 9:5986.0 
0.7227565891561664 1:5984.0 2:1708.0 3:12827.0 4:8748.0 5:5986.0 
1.0 1:5984.0 2:8748.0 3:14215.0 4:1708.0 5:9222.0 6:1898.0 7:5986.0 
1.0 1:5984.0 2:8748.0 3:14215.0 4:1708.0 5:9222.0 6:1898.0 7:5986.0 
1.0 1:5984.0 2:8748.0 3:14215.0 4:1708.0 5:9222.0 6:1898.0 7:5908.0 8:1949.0 9:5986.0 
0.1439973904935981 1:5984.0 2:6787.0 3:2214.0 4:6787.0 5:24.0 6:1949.0 7:5986.0 
0.8347710154242892 1:5984.0 2:1949.0 3:24.0 4:4046.0 5:5908.0 6:6787.0 7:2214.0 8:6787.0 9:24.0 10:1949.0 11:5986.0 
0.840673629206427 1:5984.0 2:6787.0 3:2214.0 4:6787.0 5:24.0 6:7524.0 7:5986.0 
0.8670527097635531 1:5984.0 2:1949.0 3:24.0 4:4046.0 5:5908.0 6:6787.0 7:2214.0 8:6787.0 9:24.0 10:7524.0 11:5986.0 
0.8788934231137978 1:5984.0 2:1949.0 3:24.0 4:4046.0 5:5908.0 6:6787.0 7:13710.0 8:6787.0 9:24.0 10:7524.0 11:5986.0 
0.868647739450666 1:5984.0 2:6787.0 3:13710.0 4:6787.0 5:24.0 6:7524.0 7:5986.0 
0.8588997536815584 1:5984.0 2:1949.0 3:24.0 4:4046.0 5:5908.0 6:6787.0 7:13710.0 8:6787.0 9:24.0 10:1949.0 11:5986.0 
0.3093441569238049 1:5984.0 2:6787.0 3:13710.0 4:6787.0 5:24.0 6:1949.0 7:5986.0 
1.0 1:5984.0 2:3977.0 3:11563.0 4:3977.0 5:5986.0 
0.4947981988661809 1:5984.0 2:1708.0 3:1232.0 4:1898.0 5:5986.0 
1.0 1:5984.0 2:1708.0 3:1232.0 4:1898.0 5:10425.0 6:8756.0 7:14115.0 8:1949.0 9:5986.0 
1.0 1:5984.0 2:3977.0 3:11563.0 4:3977.0 5:2763.0 6:7524.0 7:5986.0 
1.0 1:5984.0 2:1949.0 3:4626.0 4:8762.0 5:5022.0 6:1708.0 7:820.0 8:8505.0 9:10337.0 10:1708.0 11:10060.0 12:8762.0 13:5469.0 14:7524.0 15:5986.0 
1.0 1:5984.0 2:1949.0 3:4626.0 4:8762.0 5:5022.0 6:1708.0 7:820.0 8:8505.0 9:10337.0 10:1708.0 11:5469.0 12:7524.0 13:5986.0 
0.5303124592049604 1:5984.0 2:1949.0 3:4626.0 4:8762.0 5:5022.0 6:1708.0 7:820.0 8:8505.0 9:10337.0 10:1898.0 11:13999.0 12:7524.0 13:5986.0 
1.0 1:5984.0 2:1949.0 3:4626.0 4:8762.0 5:5022.0 6:1708.0 7:820.0 8:8505.0 9:10337.0 10:1898.0 11:13999.0 12:7524.0 13:5986.0 
0.16150420438732224 1:5984.0 2:1708.0 3:14065.0 4:7034.0 5:12084.0 6:8762.0 7:5986.0 
0.9887966609356253 1:5984.0 2:1708.0 3:14065.0 4:7034.0 5:12084.0 6:8762.0 7:5986.0 
1.0 1:5984.0 2:8762.0 3:13225.0 4:1708.0 5:3250.0 6:11379.0 7:13225.0 8:8748.0 9:5986.0 
1.0 1:5984.0 2:7524.0 3:14050.0 4:4424.0 5:10755.0 6:8671.0 7:9102.0 8:8762.0 9:14115.0 10:1949.0 11:5986.0 
1.0 1:5984.0 2:8032.0 3:8926.0 4:8762.0 5:14035.0 6:1708.0 7:12711.0 8:3397.0 9:1825.0 10:9922.0 11:5986.0 
0.31016942824025434 1:5984.0 2:1949.0 3:24.0 4:1708.0 5:6911.0 6:7524.0 7:5908.0 8:4046.0 9:1232.0 10:1898.0 11:9256.0 12:7668.0 13:13230.0 14:1898.0 15:5986.0 
0.9346311266862956 1:5984.0 2:1949.0 3:24.0 4:1708.0 5:6911.0 6:7524.0 7:5908.0 8:4046.0 9:1232.0 10:1898.0 11:9256.0 12:7668.0 13:13230.0 14:1898.0 15:5986.0 
0.249092909529543 1:5984.0 2:1949.0 3:24.0 4:1708.0 5:6911.0 6:7524.0 7:5908.0 8:4046.0 9:1232.0 10:1898.0 11:9256.0 12:7668.0 13:611.0 14:1898.0 15:5986.0 
1.0 1:5984.0 2:1949.0 3:24.0 4:1708.0 5:6911.0 6:7524.0 7:5986.0 
0.9954130854969416 1:5984.0 2:1949.0 3:24.0 4:1708.0 5:6911.0 6:7524.0 7:5908.0 8:4046.0 9:1232.0 10:1898.0 11:9256.0 12:7668.0 13:611.0 14:1898.0 15:5986.0 
1.0 1:5984.0 2:7524.0 3:1649.0 4:4424.0 5:776.0 6:12187.0 7:8253.0 8:8762.0 9:5986.0 
0.06873669290226363 1:5984.0 2:1708.0 3:13979.0 4:8748.0 5:5986.0 
1.0 1:5984.0 2:4046.0 3:5908.0 4:7524.0 5:4414.0 6:1949.0 7:5986.0 
0.499382392914419 1:5984.0 2:7524.0 3:12070.0 4:1708.0 5:10906.0 6:1898.0 7:4414.0 8:7524.0 9:5908.0 10:4046.0 11:5986.0 
0.562557713582455 1:5984.0 2:4046.0 3:5908.0 4:7524.0 5:4414.0 6:1898.0 7:10906.0 8:8748.0 9:8620.0 10:1949.0 11:5986.0 
0.9980277656421074 1:5984.0 2:7524.0 3:12070.0 4:1708.0 5:10906.0 6:1898.0 7:4414.0 8:7524.0 9:5908.0 10:4046.0 11:5986.0 
1.0 1:5984.0 2:4046.0 3:5908.0 4:7524.0 5:4414.0 6:1898.0 7:10906.0 8:8748.0 9:8620.0 10:1949.0 11:5986.0 
1.0 1:5984.0 2:7524.0 3:12070.0 4:1708.0 5:10906.0 6:1898.0 7:4414.0 8:7524.0 9:5986.0 
1.0 1:5984.0 2:1949.0 3:4414.0 4:1898.0 5:10906.0 6:8748.0 7:8620.0 8:1949.0 9:5986.0 
1.0 1:5984.0 2:13529.0 3:12765.0 4:13529.0 5:5986.0 
1.0 1:5984.0 2:1949.0 3:14050.0 4:8762.0 5:13225.0 6:7668.0 7:13313.0 8:3977.0 9:1925.0 10:8762.0 11:12765.0 12:13529.0 13:5986.0 
1.0 1:5984.0 2:1949.0 3:14050.0 4:8762.0 5:13225.0 6:7668.0 7:13313.0 8:3977.0 9:1925.0 10:8762.0 11:12765.0 12:13529.0 13:5986.0 
